{"learner":{"attributes":{},"feature_names":["avg_4bit_group_sensitivity","avg_8bit_group_sensitivity","bit_count_2","bit_count_3","bit_count_4","bit_count_8","estimated_average_bit_width","estimated_weight_footprint_gb","high_sensitivity_8bit_fraction","linear_attn_in_proj_a_4bit_fraction","linear_attn_in_proj_a_8bit_fraction","linear_attn_in_proj_b_4bit_fraction","linear_attn_in_proj_b_8bit_fraction","linear_attn_in_proj_qkv_4bit_fraction","linear_attn_in_proj_qkv_8bit_fraction","linear_attn_in_proj_z_4bit_fraction","linear_attn_in_proj_z_8bit_fraction","linear_attn_out_proj_4bit_fraction","linear_attn_out_proj_8bit_fraction","low_sensitivity_8bit_fraction","mlp_down_proj_4bit_fraction","mlp_down_proj_8bit_fraction","mlp_gate_proj_4bit_fraction","mlp_gate_proj_8bit_fraction","mlp_up_proj_4bit_fraction","mlp_up_proj_8bit_fraction","num_groups","param_fraction_2","param_fraction_3","param_fraction_4","param_fraction_8","policy_alignment_score","report_estimated_average_bit_width","report_estimated_weight_footprint_gb","rule_hit_rate","self_attn_k_proj_4bit_fraction","self_attn_k_proj_8bit_fraction","self_attn_o_proj_4bit_fraction","self_attn_o_proj_8bit_fraction","self_attn_q_proj_4bit_fraction","self_attn_q_proj_8bit_fraction","self_attn_v_proj_4bit_fraction","self_attn_v_proj_8bit_fraction","total_parameters_billions","unsupported_low_bit_groups"],"feature_types":[],"gradient_booster":{"model":{"cats":{"enc":[],"feature_segments":[],"sorted_idx":[]},"gbtree_model_param":{"num_parallel_tree":"1","num_trees":"64"},"iteration_indptr":[0,1,2,3,4,5,6,7,8,9,10,11,12,13,14,15,16,17,18,19,20,21,22,23,24,25,26,27,28,29,30,31,32,33,34,35,36,37,38,39,40,41,42,43,44,45,46,47,48,49,50,51,52,53,54,55,56,57,58,59,60,61,62,63,64],"tree_info":[0,0,0,0,0,0,0,0,0,0,0,0,0,0,0,0,0,0,0,0,0,0,0,0,0,0,0,0,0,0,0,0,0,0,0,0,0,0,0,0,0,0,0,0,0,0,0,0,0,0,0,0,0,0,0,0,0,0,0,0,0,0,0,0],"trees":[{"base_weights":[7.450581E-9,-2.285714E-2,3.200001E-3,-3.1999998E-2,-0E0,-3.1999995E-3,-0E0],"categories":[],"categories_nodes":[],"categories_segments":[],"categories_sizes":[],"default_left":[0,0,0,0,0,0,0],"id":0,"left_children":[1,3,-1,5,-1,-1,-1],"loss_changes":[1.0057147E-2,1.462857E-3,0E0,1.2799995E-3,0E0,0E0,0E0],"parents":[2147483647,0,0,1,1,3,3],"right_children":[2,4,-1,6,-1,-1,-1],"split_conditions":[3.13E2,4.9877363E-1,3.200001E-3,5.6133714E0,-0E0,-3.1999995E-3,-0E0],"split_indices":[4,0,0,6,0,0,0],"split_type":[0,0,0,0,0,0,0],"sum_hessian":[9E0,6E0,3E0,4E0,2E0,3E0,1E0],"tree_param":{"num_deleted":"0","num_feature":"45","num_nodes":"7","size_leaf_vector":"1"}},{"base_weights":[7.450581E-9,-2.1485714E-2,3.0080015E-3,-3.008E-2,-0E0,-3.0079999E-3,-0E0],"categories":[],"categories_nodes":[],"categories_segments":[],"categories_sizes":[],"default_left":[0,0,0,0,0,0,0],"id":1,"left_children":[1,3,-1,5,-1,-1,-1],"loss_changes":[8.8864975E-3,1.2925807E-3,0E0,1.1310079E-3,0E0,0E0,0E0],"parents":[2147483647,0,0,1,1,3,3],"right_children":[2,4,-1,6,-1,-1,-1],"split_conditions":[3.13E2,4.9877363E-1,3.0080015E-3,5.6133714E0,-0E0,-3.0079999E-3,-0E0],"split_indices":[4,0,0,6,0,0,0],"split_type":[0,0,0,0,0,0,0],"sum_hessian":[9E0,6E0,3E0,4E0,2E0,3E0,1E0],"tree_param":{"num_deleted":"0","num_feature":"45","num_nodes":"7","size_leaf_vector":"1"}},{"base_weights":[8.199119E-3,-1.1263996E-2,2.827521E-3,-1.8022393E-3,-0E0],"categories":[],"categories_nodes":[],"categories_segments":[],"categories_sizes":[],"default_left":[0,0,0,0,0],"id":2,"left_children":[1,3,-1,-1,-1],"loss_changes":[5.1530325E-3,7.612657E-4,0E0,0E0,0E0],"parents":[2147483647,0,0,1,1],"right_children":[2,4,-1,-1,-1],"split_conditions":[3.13E2,4.450585E-1,2.827521E-3,-1.8022393E-3,-0E0],"split_indices":[4,0,0,0,0],"split_type":[0,0,0,0,0],"sum_hessian":[8E0,5E0,3E0,2E0,3E0],"tree_param":{"num_deleted":"0","num_feature":"45","num_nodes":"5","size_leaf_vector":"1"}},{"base_weights":[-3.9825025E-3,-1.9681644E-2,2.7181061E-3,-2.75543E-2,-0E0,-2.75543E-3,-0E0],"categories":[],"categories_nodes":[],"categories_segments":[],"categories_sizes":[],"default_left":[0,0,0,0,0,0,0],"id":3,"left_children":[1,3,-1,5,-1,-1,-1],"loss_changes":[6.0319994E-3,1.0846278E-3,0E0,9.4904937E-4,0E0,0E0,0E0],"parents":[2147483647,0,0,1,1,3,3],"right_children":[2,4,-1,6,-1,-1,-1],"split_conditions":[3.13E2,4.9877363E-1,2.7181061E-3,5.6133714E0,-0E0,-2.75543E-3,-0E0],"split_indices":[4,0,0,6,0,0,0],"split_type":[0,0,0,0,0,0,0],"sum_hessian":[8E0,6E0,2E0,4E0,2E0,3E0,1E0],"tree_param":{"num_deleted":"0","num_feature":"45","num_nodes":"7","size_leaf_vector":"1"}},{"base_weights":[-4.7660916E-4,-1.8500743E-2,2.4947822E-3,-2.590104E-2,-0E0,-2.590104E-3,-0E0],"categories":[],"categories_nodes":[],"categories_segments":[],"categories_sizes":[],"default_left":[0,0,0,0,0,0,0],"id":4,"left_children":[1,3,-1,5,-1,-1,-1],"loss_changes":[6.2836325E-3,9.5837703E-4,0E0,8.3857984E-4,0E0,0E0,0E0],"parents":[2147483647,0,0,1,1,3,3],"right_children":[2,4,-1,6,-1,-1,-1],"split_conditions":[3.13E2,4.9877363E-1,2.4947822E-3,5.6133714E0,-0E0,-2.590104E-3,-0E0],"split_indices":[4,0,0,6,0,0,0],"split_type":[0,0,0,0,0,0,0],"sum_hessian":[9E0,6E0,3E0,4E0,2E0,3E0,1E0],"tree_param":{"num_deleted":"0","num_feature":"45","num_nodes":"7","size_leaf_vector":"1"}},{"base_weights":[-4.4801683E-4,2.3450952E-3,-1.7390704E-2,-2.4346987E-2,-0E0,-2.4346986E-3,-0E0],"categories":[],"categories_nodes":[],"categories_segments":[],"categories_sizes":[],"default_left":[0,0,0,0,0,0,0],"id":5,"left_children":[1,-1,3,5,-1,-1,-1],"loss_changes":[5.552219E-3,0E0,8.468225E-4,7.409698E-4,0E0,0E0,0E0],"parents":[2147483647,0,0,2,2,3,3],"right_children":[2,-1,4,6,-1,-1,-1],"split_conditions":[7.083333E-1,2.3450952E-3,4.9877363E-1,5.6133714E0,-0E0,-2.4346986E-3,-0E0],"split_indices":[14,0,0,6,0,0,0],"split_type":[0,0,0,0,0,0,0],"sum_hessian":[9E0,3E0,6E0,4E0,2E0,3E0,1E0],"tree_param":{"num_deleted":"0","num_feature":"45","num_nodes":"7","size_leaf_vector":"1"}},{"base_weights":[-4.2113214E-4,-1.6347261E-2,2.20439E-3,-2.2886166E-2,-0E0,-2.2886165E-3,-0E0],"categories":[],"categories_nodes":[],"categories_segments":[],"categories_sizes":[],"default_left":[0,0,0,0,0,0,0],"id":6,"left_children":[1,3,-1,5,-1,-1,-1],"loss_changes":[4.905942E-3,7.482524E-4,0E0,6.547207E-4,0E0,0E0,0E0],"parents":[2147483647,0,0,1,1,3,3],"right_children":[2,4,-1,6,-1,-1,-1],"split_conditions":[3.13E2,4.9877363E-1,2.20439E-3,5.6133714E0,-0E0,-2.2886165E-3,-0E0],"split_indices":[4,0,0,6,0,0,0],"split_type":[0,0,0,0,0,0,0],"sum_hessian":[9E0,6E0,3E0,4E0,2E0,3E0,1E0],"tree_param":{"num_deleted":"0","num_feature":"45","num_nodes":"7","size_leaf_vector":"1"}},{"base_weights":[-1.079536E-2,-2.5489265E-3,-3.234246E-3,-1.1691157E-3,4.2404234E-3,8.480847E-4,-0E0],"categories":[],"categories_nodes":[],"categories_segments":[],"categories_sizes":[],"default_left":[0,0,0,0,0,0,0],"id":7,"left_children":[1,-1,3,-1,5,-1,-1],"loss_changes":[1.1712248E-3,0E0,6.573858E-4,0E0,1.3485893E-4,0E0,0E0],"parents":[2147483647,0,0,2,2,4,4],"right_children":[2,-1,4,-1,6,-1,-1],"split_conditions":[1.68E2,-2.5489265E-3,4.450585E-1,-1.1691157E-3,4.4516534E-1,8.480847E-4,-0E0],"split_indices":[5,0,0,0,0,0,0],"split_type":[0,0,0,0,0,0,0],"sum_hessian":[7E0,1E0,6E0,2E0,4E0,1E0,3E0],"tree_param":{"num_deleted":"0","num_feature":"45","num_nodes":"7","size_leaf_vector":"1"}},{"base_weights":[2.921505E-4,-1.7112972E-2,2.1061439E-3,-2.0535567E-3,-0E0],"categories":[],"categories_nodes":[],"categories_segments":[],"categories_sizes":[],"default_left":[0,0,0,0,0],"id":8,"left_children":[1,3,-1,-1,-1],"loss_changes":[4.528756E-3,8.785615E-4,0E0,0E0,0E0],"parents":[2147483647,0,0,1,1],"right_children":[2,4,-1,-1,-1],"split_conditions":[3.13E2,4.181534E-1,2.1061439E-3,-2.0535567E-3,-0E0],"split_indices":[4,30,0,0,0],"split_type":[0,0,0,0,0],"sum_hessian":[8E0,5E0,3E0,3E0,2E0],"tree_param":{"num_deleted":"0","num_feature":"45","num_nodes":"5","size_leaf_vector":"1"}},{"base_weights":[3.089551E-4,-1.9303432E-2,1.979776E-3,-1.9303432E-3,-0E0],"categories":[],"categories_nodes":[],"categories_segments":[],"categories_sizes":[],"default_left":[0,0,0,0,0],"id":9,"left_children":[1,3,-1,-1,-1],"loss_changes":[4.3120445E-3,4.6577817E-4,0E0,0E0,0E0],"parents":[2147483647,0,0,1,1],"right_children":[2,4,-1,-1,-1],"split_conditions":[2.7083334E-1,4.9877363E-1,1.979776E-3,-1.9303432E-3,-0E0],"split_indices":[13,0,0,0,0],"split_type":[0,0,0,0,0],"sum_hessian":[7E0,4E0,3E0,3E0,1E0],"tree_param":{"num_deleted":"0","num_feature":"45","num_nodes":"5","size_leaf_vector":"1"}},{"base_weights":[-1.9186619E-3,-1.2950329E-2,1.9569157E-3,-2.2876125E-3,-5.576998E-3,-8.942874E-4,1.8447638E-5,-5.279382E-5,8.214235E-5],"categories":[],"categories_nodes":[],"categories_segments":[],"categories_sizes":[],"default_left":[0,0,0,0,0,0,0,0,0],"id":10,"left_children":[1,3,-1,-1,5,-1,7,-1,-1],"loss_changes":[2.935933E-3,6.4800645E-4,0E0,0E0,1.8826676E-4,0E0,3.4136847E-6,0E0,0E0],"parents":[2147483647,0,0,1,1,4,4,6,6],"right_children":[2,4,-1,-1,6,-1,8,-1,-1],"split_conditions":[3.13E2,1.68E2,1.9569157E-3,-2.2876125E-3,4.450585E-1,-8.942874E-4,5.0053096E-1,-5.279382E-5,8.214235E-5],"split_indices":[4,5,0,0,0,0,0,0,0],"split_type":[0,0,0,0,0,0,0,0,0],"sum_hessian":[8E0,6E0,2E0,1E0,5E0,2E0,3E0,2E0,1E0],"tree_param":{"num_deleted":"0","num_feature":"45","num_nodes":"9","size_leaf_vector":"1"}},{"base_weights":[-2.1418687E-3,-1.4434245E-2,2.3156842E-2,-6.3405572E-3,-2.1961075E-3,5.7244895E-4,2.2063719E-3,-8.4659253E-4,1.4811754E-5,-7.707953E-5,7.8856945E-5],"categories":[],"categories_nodes":[],"categories_segments":[],"categories_sizes":[],"default_left":[0,0,0,0,0,0,0,0,0,0,0],"id":11,"left_children":[1,3,5,7,-1,-1,-1,-1,9,-1,-1],"loss_changes":[2.8221018E-3,4.5808114E-4,1.496193E-5,1.3494938E-4,0E0,0E0,0E0,0E0,3.7992393E-6,0E0,0E0],"parents":[2147483647,0,0,1,1,2,2,3,3,8,8],"right_children":[2,4,6,8,-1,-1,-1,-1,10,-1,-1],"split_conditions":[3.125E-1,1E1,4.4516534E-1,4.450585E-1,-2.1961075E-3,5.7244895E-4,2.2063719E-3,-8.4659253E-4,4.5675454E-1,-7.707953E-5,7.8856945E-5],"split_indices":[13,2,0,0,0,0,0,0,0,0,0],"split_type":[0,0,0,0,0,0,0,0,0,0,0],"sum_hessian":[7E0,5E0,2E0,4E0,1E0,1E0,1E0,2E0,2E0,1E0,1E0],"tree_param":{"num_deleted":"0","num_feature":"45","num_nodes":"11","size_leaf_vector":"1"}},{"base_weights":[-5.69205E-3,1.8476695E-4,-2.1082633E-3,6.676418E-3,-7.975988E-3,7.7975035E-4,1.1043866E-4,-8.0144085E-4,-7.399678E-5],"categories":[],"categories_nodes":[],"categories_segments":[],"categories_sizes":[],"default_left":[0,0,0,0,0,0,0,0,0],"id":12,"left_children":[1,3,-1,5,7,-1,-1,-1,-1],"loss_changes":[1.0976703E-3,4.7706522E-4,0E0,6.7849425E-5,4.8327172E-5,0E0,0E0,0E0,0E0],"parents":[2147483647,0,0,1,1,3,3,4,4],"right_children":[2,4,-1,6,8,-1,-1,-1,-1],"split_conditions":[7.916667E-1,1.86E2,-2.1082633E-3,4.9852744E-1,4.450585E-1,7.7975035E-4,1.1043866E-4,-8.0144085E-4,-7.399678E-5],"split_indices":[18,5,0,0,0,0,0,0,0],"split_type":[0,0,0,0,0,0,0,0,0],"sum_hessian":[8E0,7E0,1E0,4E0,3E0,2E0,2E0,2E0,1E0],"tree_param":{"num_deleted":"0","num_feature":"45","num_nodes":"9","size_leaf_vector":"1"}},{"base_weights":[2.949491E-4,-1.0986403E-2,1.9963577E-2,-2.0239323E-3,-4.3844185E-3,7.3816377E-4,2.0869267E-3,-7.5869716E-4,5.361587E-4,-7.103681E-5,1.0454814E-4],"categories":[],"categories_nodes":[],"categories_segments":[],"categories_sizes":[],"default_left":[0,0,0,0,0,0,0,0,0,0,0],"id":13,"left_children":[1,3,5,-1,7,-1,-1,-1,9,-1,-1],"loss_changes":[2.438215E-3,5.505258E-4,2.2257213E-5,0E0,1.5563366E-4,0E0,0E0,0E0,5.5506657E-6,0E0,0E0],"parents":[2147483647,0,0,1,1,2,2,4,4,8,8],"right_children":[2,4,6,-1,8,-1,-1,-1,10,-1,-1],"split_conditions":[3.13E2,1.68E2,5.6058803E0,-2.0239323E-3,4.450585E-1,7.3816377E-4,2.0869267E-3,-7.5869716E-4,4.5675454E-1,-7.103681E-5,1.0454814E-4],"split_indices":[4,5,6,0,0,0,0,0,0,0,0],"split_type":[0,0,0,0,0,0,0,0,0,0,0],"sum_hessian":[9E0,6E0,3E0,1E0,5E0,2E0,1E0,2E0,3E0,1E0,2E0],"tree_param":{"num_deleted":"0","num_feature":"45","num_nodes":"11","size_leaf_vector":"1"}},{"base_weights":[-1.0479274E-3,-1.0500216E-2,1.7085378E-3,-1.9429749E-3,-4.1545234E-3,-7.1823277E-4,5.016476E-4,-6.8194866E-5,9.897232E-5],"categories":[],"categories_nodes":[],"categories_segments":[],"categories_sizes":[],"default_left":[0,0,0,0,0,0,0,0,0],"id":14,"left_children":[1,3,-1,-1,5,-1,7,-1,-1],"loss_changes":[2.130227E-3,5.1151344E-4,0E0,0E0,1.3925481E-4,0E0,5.0383424E-6,0E0,0E0],"parents":[2147483647,0,0,1,1,4,4,6,6],"right_children":[2,4,-1,-1,6,-1,8,-1,-1],"split_conditions":[3.13E2,1.68E2,1.7085378E-3,-1.9429749E-3,4.450585E-1,-7.1823277E-4,4.5675454E-1,-6.8194866E-5,9.897232E-5],"split_indices":[4,5,0,0,0,0,0,0,0],"split_type":[0,0,0,0,0,0,0,0,0],"sum_hessian":[8E0,6E0,2E0,1E0,5E0,2E0,3E0,1E0,2E0],"tree_param":{"num_deleted":"0","num_feature":"45","num_nodes":"9","size_leaf_vector":"1"}},{"base_weights":[-1.0665274E-3,-1.0035977E-2,2.0217696E-2,-1.8652563E-3,-3.936738E-3,1.9351076E-3,4.910159E-4,-6.7992683E-4,4.6920776E-4,-6.546736E-5,9.369373E-5],"categories":[],"categories_nodes":[],"categories_segments":[],"categories_sizes":[],"default_left":[0,0,0,0,0,0,0,0,0,0,0],"id":15,"left_children":[1,3,5,-1,7,-1,-1,-1,9,-1,-1],"loss_changes":[1.9210742E-3,4.7518592E-4,1.9277446E-5,0E0,1.2459658E-4,0E0,0E0,0E0,4.5736724E-6,0E0,0E0],"parents":[2147483647,0,0,1,1,2,2,4,4,8,8],"right_children":[2,4,6,-1,8,-1,-1,-1,10,-1,-1],"split_conditions":[3.13E2,1.68E2,4.8749077E-1,-1.8652563E-3,4.450585E-1,1.9351076E-3,4.910159E-4,-6.7992683E-4,4.5675454E-1,-6.546736E-5,9.369373E-5],"split_indices":[4,5,0,0,0,0,0,0,0,0,0],"split_type":[0,0,0,0,0,0,0,0,0,0,0],"sum_hessian":[8E0,6E0,2E0,1E0,5E0,1E0,1E0,2E0,3E0,1E0,2E0],"tree_param":{"num_deleted":"0","num_feature":"45","num_nodes":"11","size_leaf_vector":"1"}},{"base_weights":[-3.4441055E-5,-9.592659E-3,1.670105E-2,-1.7906456E-3,-3.7304114E-3,5.429761E-4,1.8577039E-3,-6.436634E-4,4.3872744E-4,-6.2848325E-5,8.869648E-5],"categories":[],"categories_nodes":[],"categories_segments":[],"categories_sizes":[],"default_left":[0,0,0,0,0,0,0,0,0,0,0],"id":16,"left_children":[1,3,5,-1,7,-1,-1,-1,9,-1,-1],"loss_changes":[1.7598222E-3,4.4136593E-4,1.0095537E-4,0E0,1.11478446E-4,0E0,0E0,0E0,4.152108E-6,0E0,0E0],"parents":[2147483647,0,0,1,1,2,2,4,4,8,8],"right_children":[2,4,6,-1,8,-1,-1,-1,10,-1,-1],"split_conditions":[3.125E-1,1.68E2,5.6058803E0,-1.7906456E-3,4.450585E-1,5.429761E-4,1.8577039E-3,-6.436634E-4,4.5675454E-1,-6.2848325E-5,8.869648E-5],"split_indices":[13,5,6,0,0,0,0,0,0,0,0],"split_type":[0,0,0,0,0,0,0,0,0,0,0],"sum_hessian":[9E0,6E0,3E0,1E0,5E0,2E0,1E0,2E0,3E0,1E0,2E0],"tree_param":{"num_deleted":"0","num_feature":"45","num_nodes":"11","size_leaf_vector":"1"}},{"base_weights":[-1.285111E-3,1.753972E-2,-9.1693085E-3,1.783396E-3,3.2137035E-4,-1.71902E-3,-3.5349429E-3,4.1009486E-4,-6.0933427E-4,8.396625E-5,-6.0334205E-5],"categories":[],"categories_nodes":[],"categories_segments":[],"categories_sizes":[],"default_left":[0,0,0,0,0,0,0,0,0,0,0],"id":17,"left_children":[1,3,5,-1,-1,-1,7,9,-1,-1,-1],"loss_changes":[1.4965952E-3,1.0325597E-4,4.0988822E-4,0E0,0E0,0E0,9.973917E-5,3.7696993E-6,0E0,0E0,0E0],"parents":[2147483647,0,0,1,1,2,2,6,6,7,7],"right_children":[2,4,6,-1,-1,-1,8,10,-1,-1,-1],"split_conditions":[7.083333E-1,5.584507E-1,1.68E2,1.783396E-3,3.2137035E-4,-1.71902E-3,5.5967176E-1,5.0188684E-1,-6.0933427E-4,8.396625E-5,-6.0334205E-5],"split_indices":[14,1,5,0,0,0,1,1,0,0,0],"split_type":[0,0,0,0,0,0,0,0,0,0,0],"sum_hessian":[8E0,2E0,6E0,1E0,1E0,1E0,5E0,3E0,2E0,2E0,1E0],"tree_param":{"num_deleted":"0","num_feature":"45","num_nodes":"11","size_leaf_vector":"1"}},{"base_weights":[-1.3826341E-4,-8.7650055E-3,1.4993101E-2,-1.6502589E-3,-3.3497612E-3,4.578908E-4,1.71206E-3,-5.768363E-4,3.8319826E-4,-5.7921407E-5,7.948875E-5],"categories":[],"categories_nodes":[],"categories_segments":[],"categories_sizes":[],"default_left":[0,0,0,0,0,0,0,0,0,0,0],"id":18,"left_children":[1,3,5,-1,7,-1,-1,-1,9,-1,-1],"loss_changes":[1.4367584E-3,3.8059644E-4,1.15091854E-4,0E0,8.9233865E-5,0E0,0E0,0E0,3.4228187E-6,0E0,0E0],"parents":[2147483647,0,0,1,1,2,2,4,4,8,8],"right_children":[2,4,6,-1,8,-1,-1,-1,10,-1,-1],"split_conditions":[3.13E2,1.68E2,5.6058803E0,-1.6502589E-3,4.450585E-1,4.578908E-4,1.71206E-3,-5.768363E-4,4.5675454E-1,-5.7921407E-5,7.948875E-5],"split_indices":[4,5,6,0,0,0,0,0,0,0,0],"split_type":[0,0,0,0,0,0,0,0,0,0,0],"sum_hessian":[9E0,6E0,3E0,1E0,5E0,2E0,1E0,2E0,3E0,1E0,2E0],"tree_param":{"num_deleted":"0","num_feature":"45","num_nodes":"11","size_leaf_vector":"1"}},{"base_weights":[-1.3075917E-4,-8.378883E-3,1.4336146E-2,-1.5842491E-3,-3.1743248E-3,4.334704E-4,1.6435778E-3,-5.460723E-4,3.579408E-4,-5.560398E-5,7.524967E-5],"categories":[],"categories_nodes":[],"categories_segments":[],"categories_sizes":[],"default_left":[0,0,0,0,0,0,0,0,0,0,0],"id":19,"left_children":[1,3,5,-1,7,-1,-1,-1,9,-1,-1],"loss_changes":[1.3133691E-3,3.53345E-4,1.10147404E-4,0E0,7.9833364E-5,0E0,0E0,0E0,3.108005E-6,0E0,0E0],"parents":[2147483647,0,0,1,1,2,2,4,4,8,8],"right_children":[2,4,6,-1,8,-1,-1,-1,10,-1,-1],"split_conditions":[3.13E2,1.68E2,5.6058803E0,-1.5842491E-3,4.450585E-1,4.334704E-4,1.6435778E-3,-5.460723E-4,4.5675454E-1,-5.560398E-5,7.524967E-5],"split_indices":[4,5,6,0,0,0,0,0,0,0,0],"split_type":[0,0,0,0,0,0,0,0,0,0,0],"sum_hessian":[9E0,6E0,3E0,1E0,5E0,2E0,1E0,2E0,3E0,1E0,2E0],"tree_param":{"num_deleted":"0","num_feature":"45","num_nodes":"11","size_leaf_vector":"1"}},{"base_weights":[-1.2366027E-4,-8.010096E-3,1.3708517E-2,-1.5208786E-3,-3.0081172E-3,4.1035176E-4,1.5778351E-3,-5.169487E-4,3.3421814E-4,-5.3379536E-5,7.123629E-5],"categories":[],"categories_nodes":[],"categories_segments":[],"categories_sizes":[],"default_left":[0,0,0,0,0,0,0,0,0,0,0],"id":20,"left_children":[1,3,5,-1,7,-1,-1,-1,9,-1,-1],"loss_changes":[1.2006722E-3,3.2799612E-4,1.0522705E-4,0E0,7.142105E-5,0E0,0E0,0E0,2.8223458E-6,0E0,0E0],"parents":[2147483647,0,0,1,1,2,2,4,4,8,8],"right_children":[2,4,6,-1,8,-1,-1,-1,10,-1,-1],"split_conditions":[3.13E2,1.68E2,5.6058803E0,-1.5208786E-3,4.450585E-1,4.1035176E-4,1.5778351E-3,-5.169487E-4,4.5675454E-1,-5.3379536E-5,7.123629E-5],"split_indices":[4,5,6,0,0,0,0,0,0,0,0],"split_type":[0,0,0,0,0,0,0,0,0,0,0],"sum_hessian":[9E0,6E0,3E0,1E0,5E0,2E0,1E0,2E0,3E0,1E0,2E0],"tree_param":{"num_deleted":"0","num_feature":"45","num_nodes":"11","size_leaf_vector":"1"}},{"base_weights":[-1.1694282E-4,-7.6578534E-3,1.3108887E-2,-1.4600437E-3,-2.8506469E-3,3.8846652E-4,1.5147221E-3,-4.8937794E-4,3.1194836E-4,-5.1244497E-5,6.743749E-5],"categories":[],"categories_nodes":[],"categories_segments":[],"categories_sizes":[],"default_left":[0,0,0,0,0,0,0,0,0,0,0],"id":21,"left_children":[1,3,5,-1,7,-1,-1,-1,9,-1,-1],"loss_changes":[1.097734E-3,3.0442304E-4,1.0036031E-4,0E0,6.3893436E-5,0E0,0E0,0E0,2.5631657E-6,0E0,0E0],"parents":[2147483647,0,0,1,1,2,2,4,4,8,8],"right_children":[2,4,6,-1,8,-1,-1,-1,10,-1,-1],"split_conditions":[3.13E2,1.68E2,5.6058803E0,-1.4600437E-3,4.450585E-1,3.8846652E-4,1.5147221E-3,-4.8937794E-4,4.5675454E-1,-5.1244497E-5,6.743749E-5],"split_indices":[4,5,6,0,0,0,0,0,0,0,0],"split_type":[0,0,0,0,0,0,0,0,0,0,0],"sum_hessian":[9E0,6E0,3E0,1E0,5E0,2E0,1E0,2E0,3E0,1E0,2E0],"tree_param":{"num_deleted":"0","num_feature":"45","num_nodes":"11","size_leaf_vector":"1"}},{"base_weights":[4.0699914E-3,-3.5167872E-3,1.2535967E-2,-4.632775E-4,-7.034341E-5,3.6774794E-4,1.4541327E-3,-4.919529E-5,4.075408E-5],"categories":[],"categories_nodes":[],"categories_segments":[],"categories_sizes":[],"default_left":[0,0,0,0,0,0,0,0,0],"id":22,"left_children":[1,3,5,-1,7,-1,-1,-1,-1],"loss_changes":[5.579222E-4,3.8781836E-5,9.557314E-5,0E0,1.2604903E-6,0E0,0E0,0E0,0E0],"parents":[2147483647,0,0,1,1,2,2,4,4],"right_children":[2,4,6,-1,8,-1,-1,-1,-1],"split_conditions":[3.13E2,4.450585E-1,5.6058803E0,-4.632775E-4,4.5675454E-1,3.6774794E-4,1.4541327E-3,-4.919529E-5,4.075408E-5],"split_indices":[4,0,6,0,0,0,0,0,0],"split_type":[0,0,0,0,0,0,0,0,0],"sum_hessian":[7E0,4E0,3E0,2E0,2E0,2E0,1E0,1E0,1E0],"tree_param":{"num_deleted":"0","num_feature":"45","num_nodes":"9","size_leaf_vector":"1"}},{"base_weights":[-1.0935714E-3,-7.1994686E-3,1.3518046E-2,-1.4032716E-3,-2.552415E-3,2.2619843E-4,1.395967E-3,-4.3856938E-4,2.829656E-4,-4.7227142E-5,6.166776E-5],"categories":[],"categories_nodes":[],"categories_segments":[],"categories_sizes":[],"default_left":[0,0,0,0,0,0,0,0,0,0,0],"id":23,"left_children":[1,3,5,-1,7,-1,-1,-1,9,-1,-1],"loss_changes":[9.00276E-4,2.916285E-4,7.675291E-5,0E0,5.1392184E-5,0E0,0E0,0E0,2.1593382E-6,0E0,0E0],"parents":[2147483647,0,0,1,1,2,2,4,4,8,8],"right_children":[2,4,6,-1,8,-1,-1,-1,10,-1,-1],"split_conditions":[3.13E2,1.68E2,4.4516534E-1,-1.4032716E-3,4.450585E-1,2.2619843E-4,1.395967E-3,-4.3856938E-4,4.5675454E-1,-4.7227142E-5,6.166776E-5],"split_indices":[4,5,0,0,0,0,0,0,0,0,0],"split_type":[0,0,0,0,0,0,0,0,0,0,0],"sum_hessian":[8E0,6E0,2E0,1E0,5E0,1E0,1E0,2E0,3E0,1E0,2E0],"tree_param":{"num_deleted":"0","num_feature":"45","num_nodes":"11","size_leaf_vector":"1"}},{"base_weights":[-5.0318404E-4,-8.24412E-3,1.1234015E-2,-3.15724E-3,-1.3471406E-3,3.0487616E-4,1.3401281E-3,-7.233024E-5,-4.1517895E-4,3.6658046E-5,-4.5337674E-5],"categories":[],"categories_nodes":[],"categories_segments":[],"categories_sizes":[],"default_left":[0,0,0,0,0,0,0,0,0,0,0],"id":24,"left_children":[1,3,5,7,-1,-1,-1,9,-1,-1,-1],"loss_changes":[9.1032666E-4,2.0916903E-4,9.999005E-5,3.0974967E-5,0E0,0E0,0E0,1.0465917E-6,0E0,0E0,0E0],"parents":[2147483647,0,0,1,1,2,2,3,3,7,7],"right_children":[2,4,6,8,-1,-1,-1,10,-1,-1,-1],"split_conditions":[3.13E2,1E1,5.6058803E0,5.5967176E-1,-1.3471406E-3,3.0487616E-4,1.3401281E-3,5.0188684E-1,-4.1517895E-4,3.6658046E-5,-4.5337674E-5],"split_indices":[4,2,6,1,0,0,0,1,0,0,0],"split_type":[0,0,0,0,0,0,0,0,0,0,0],"sum_hessian":[8E0,5E0,3E0,4E0,1E0,2E0,1E0,2E0,2E0,1E0,1E0],"tree_param":{"num_deleted":"0","num_feature":"45","num_nodes":"11","size_leaf_vector":"1"}},{"base_weights":[-3.7595017E-3,-1.8801913E-4,-1.2932544E-3,2.8645634E-3,-3.9567426E-3,2.6886046E-4,3.5191773E-5,-3.9303617E-4,-4.3524502E-5],"categories":[],"categories_nodes":[],"categories_segments":[],"categories_sizes":[],"default_left":[0,0,0,0,0,0,0,0,0],"id":25,"left_children":[1,3,-1,5,7,-1,-1,-1,-1],"loss_changes":[3.9573666E-4,1.0336906E-4,0E0,4.537116E-6,1.0380056E-5,0E0,0E0,0E0,0E0],"parents":[2147483647,0,0,1,1,3,3,4,4],"right_children":[2,4,-1,6,8,-1,-1,-1,-1],"split_conditions":[7.916667E-1,1.86E2,-1.2932544E-3,5.0053096E-1,4.450585E-1,2.6886046E-4,3.5191773E-5,-3.9303617E-4,-4.3524502E-5],"split_indices":[18,5,0,0,0,0,0,0,0],"split_type":[0,0,0,0,0,0,0,0,0],"sum_hessian":[8E0,7E0,1E0,4E0,3E0,3E0,1E0,2E0,1E0],"tree_param":{"num_deleted":"0","num_feature":"45","num_nodes":"9","size_leaf_vector":"1"}},{"base_weights":[-6.6019595E-5,-6.119977E-3,1.0544911E-2,-1.2415248E-3,-1.9669533E-3,2.7427753E-4,1.2757694E-3,-3.7207443E-4,5.37768E-4,-4.1784046E-5,8.521795E-5],"categories":[],"categories_nodes":[],"categories_segments":[],"categories_sizes":[],"default_left":[0,0,0,0,0,0,0,0,0,0,0],"id":26,"left_children":[1,3,5,-1,7,-1,-1,-1,9,-1,-1],"loss_changes":[7.0691586E-4,2.4271701E-4,9.910375E-5,0E0,4.2836808E-5,0E0,0E0,0E0,2.7929273E-6,0E0,0E0],"parents":[2147483647,0,0,1,1,2,2,4,4,8,8],"right_children":[2,4,6,-1,8,-1,-1,-1,10,-1,-1],"split_conditions":[3.13E2,1.68E2,5.6058803E0,-1.2415248E-3,4.450585E-1,2.7427753E-4,1.2757694E-3,-3.7207443E-4,4.5675454E-1,-4.1784046E-5,8.521795E-5],"split_indices":[4,5,6,0,0,0,0,0,0,0,0],"split_type":[0,0,0,0,0,0,0,0,0,0,0],"sum_hessian":[9E0,6E0,3E0,1E0,5E0,2E0,1E0,2E0,3E0,1E0,2E0],"tree_param":{"num_deleted":"0","num_feature":"45","num_nodes":"11","size_leaf_vector":"1"}},{"base_weights":[3.2410158E-3,-1.8116459E-4,1.2247383E-3,2.552426E-3,-3.5528615E-3,2.4005472E-4,3.0375719E-5,-3.5223007E-4,-4.0112733E-5],"categories":[],"categories_nodes":[],"categories_segments":[],"categories_sizes":[],"default_left":[0,0,0,0,0,0,0,0,0],"id":27,"left_children":[1,3,-1,5,7,-1,-1,-1,-1],"loss_changes":[3.7446994E-4,8.2803126E-5,0E0,3.730369E-6,8.16747E-6,0E0,0E0,0E0,0E0],"parents":[2147483647,0,0,1,1,3,3,4,4],"right_children":[2,4,-1,6,8,-1,-1,-1,-1],"split_conditions":[5.6149735E0,1.86E2,1.2247383E-3,5.0053096E-1,4.450585E-1,2.4005472E-4,3.0375719E-5,-3.5223007E-4,-4.0112733E-5],"split_indices":[6,5,0,0,0,0,0,0,0],"split_type":[0,0,0,0,0,0,0,0,0],"sum_hessian":[8E0,7E0,1E0,4E0,3E0,3E0,1E0,2E0,1E0],"tree_param":{"num_deleted":"0","num_feature":"45","num_nodes":"9","size_leaf_vector":"1"}},{"base_weights":[-6.8452395E-4,-6.6309944E-3,1.1436592E-2,-1.2014657E-3,-1.9498647E-3,1.1757492E-3,1.9664167E-4,-3.3344427E-4,7.3462325E-5],"categories":[],"categories_nodes":[],"categories_segments":[],"categories_sizes":[],"default_left":[0,0,0,0,0,0,0,0,0],"id":28,"left_children":[1,3,5,-1,7,-1,-1,-1,-1],"loss_changes":[6.5245887E-4,2.0628932E-4,5.1692594E-5,0E0,3.5637855E-5,0E0,0E0,0E0,0E0],"parents":[2147483647,0,0,1,1,2,2,4,4],"right_children":[2,4,6,-1,8,-1,-1,-1,-1],"split_conditions":[3.13E2,5.4473476E0,4.8749077E-1,-1.2014657E-3,4.450585E-1,1.1757492E-3,1.9664167E-4,-3.3344427E-4,7.3462325E-5],"split_indices":[4,6,0,0,0,0,0,0,0],"split_type":[0,0,0,0,0,0,0,0,0],"sum_hessian":[7E0,5E0,2E0,1E0,4E0,1E0,1E0,2E0,2E0],"tree_param":{"num_deleted":"0","num_feature":"45","num_nodes":"9","size_leaf_vector":"1"}},{"base_weights":[-8.5235946E-4,-6.626042E-3,1.0979126E-2,-1.1534076E-3,-2.1842122E-3,1.1287188E-3,1.8877625E-4,-3.1565982E-4,3.0539432E-4,-4.1446685E-5,7.8094E-5],"categories":[],"categories_nodes":[],"categories_segments":[],"categories_sizes":[],"default_left":[0,0,0,0,0,0,0,0,0,0,0],"id":29,"left_children":[1,3,5,-1,7,-1,-1,-1,9,-1,-1],"loss_changes":[6.1923807E-4,1.7616147E-4,4.763974E-5,0E0,2.3132667E-5,0E0,0E0,0E0,2.1628596E-6,0E0,0E0],"parents":[2147483647,0,0,1,1,2,2,4,4,8,8],"right_children":[2,4,6,-1,8,-1,-1,-1,10,-1,-1],"split_conditions":[3.13E2,1.68E2,4.8749077E-1,-1.1534076E-3,4.450585E-1,1.1287188E-3,1.8877625E-4,-3.1565982E-4,4.5675454E-1,-4.1446685E-5,7.8094E-5],"split_indices":[4,5,0,0,0,0,0,0,0,0,0],"split_type":[0,0,0,0,0,0,0,0,0,0,0],"sum_hessian":[7E0,5E0,2E0,1E0,4E0,1E0,1E0,2E0,2E0,1E0,1E0],"tree_param":{"num_deleted":"0","num_feature":"45","num_nodes":"11","size_leaf_vector":"1"}},{"base_weights":[-3.0887293E-4,-6.0726576E-3,8.414023E-3,-1.1072713E-3,-1.7508328E-3,1.7511606E-4,1.0835695E-3,-2.988243E-4,6.5379936E-5],"categories":[],"categories_nodes":[],"categories_segments":[],"categories_sizes":[],"default_left":[0,0,0,0,0,0,0,0,0],"id":30,"left_children":[1,3,5,-1,7,-1,-1,-1,-1],"loss_changes":[5.035875E-4,1.7720458E-4,9.810485E-5,0E0,2.8534094E-5,0E0,0E0,0E0,0E0],"parents":[2147483647,0,0,1,1,2,2,4,4],"right_children":[2,4,6,-1,8,-1,-1,-1,-1],"split_conditions":[2.7083334E-1,1.68E2,5.6058803E0,-1.1072713E-3,4.450585E-1,1.7511606E-4,1.0835695E-3,-2.988243E-4,6.5379936E-5],"split_indices":[13,5,6,0,0,0,0,0,0],"split_type":[0,0,0,0,0,0,0,0,0],"sum_hessian":[8E0,5E0,3E0,1E0,4E0,2E0,1E0,2E0,2E0],"tree_param":{"num_deleted":"0","num_feature":"45","num_nodes":"9","size_leaf_vector":"1"}},{"base_weights":[-4.7178118E-4,-4.3848734E-3,1.0120392E-2,-1.0629803E-3,-1.2149258E-3,1.742208E-4,1.0402262E-3,8.364141E-5,-2.53731E-4],"categories":[],"categories_nodes":[],"categories_segments":[],"categories_sizes":[],"default_left":[0,0,0,0,0,0,0,0,0],"id":31,"left_children":[1,3,5,-1,7,-1,-1,-1,-1],"loss_changes":[4.5885812E-4,2.0961763E-4,4.0365383E-5,0E0,3.427726E-5,0E0,0E0,0E0,0E0],"parents":[2147483647,0,0,1,1,2,2,4,4],"right_children":[2,4,6,-1,8,-1,-1,-1,-1],"split_conditions":[3.25E2,1.68E2,4.9802253E-1,-1.0629803E-3,1.86E2,1.742208E-4,1.0402262E-3,8.364141E-5,-2.53731E-4],"split_indices":[4,5,1,0,5,0,0,0,0],"split_type":[0,0,0,0,0,0,0,0,0],"sum_hessian":[9E0,7E0,2E0,1E0,6E0,1E0,1E0,3E0,3E0],"tree_param":{"num_deleted":"0","num_feature":"45","num_nodes":"9","size_leaf_vector":"1"}},{"base_weights":[2.421882E-3,-7.986256E-4,9.986174E-4,1.5837401E-3,-2.385068E-4,1.5750727E-4,1.7137527E-5],"categories":[],"categories_nodes":[],"categories_segments":[],"categories_sizes":[],"default_left":[0,0,0,0,0,0,0],"id":32,"left_children":[1,3,-1,5,-1,-1,-1],"loss_changes":[2.69177E-4,4.1121744E-5,0E0,1.6878512E-6,0E0,0E0,0E0],"parents":[2147483647,0,0,1,1,3,3],"right_children":[2,4,-1,6,-1,-1,-1],"split_conditions":[5.6149735E0,5.0188684E-1,9.986174E-4,5.012051E-1,-2.385068E-4,1.5750727E-4,1.7137527E-5],"split_indices":[6,1,0,1,0,0,0],"split_type":[0,0,0,0,0,0,0],"sum_hessian":[7E0,6E0,1E0,3E0,3E0,2E0,1E0],"tree_param":{"num_deleted":"0","num_feature":"45","num_nodes":"7","size_leaf_vector":"1"}},{"base_weights":[-8.655619E-4,-5.8191842E-3,9.330203E-3,-1.0109204E-3,-1.9284189E-3,9.586727E-4,1.609516E-4,-2.2419631E-4,6.270885E-5],"categories":[],"categories_nodes":[],"categories_segments":[],"categories_sizes":[],"default_left":[0,0,0,0,0,0,0,0,0],"id":33,"left_children":[1,3,5,-1,7,-1,-1,-1,-1],"loss_changes":[4.583419E-4,1.347791E-4,3.4141558E-5,0E0,1.40498705E-5,0E0,0E0,0E0,0E0],"parents":[2147483647,0,0,1,1,2,2,4,4],"right_children":[2,4,6,-1,8,-1,-1,-1,-1],"split_conditions":[3.13E2,1.68E2,4.8749077E-1,-1.0109204E-3,4.5675454E-1,9.586727E-4,1.609516E-4,-2.2419631E-4,6.270885E-5],"split_indices":[4,5,0,0,0,0,0,0,0],"split_type":[0,0,0,0,0,0,0,0,0],"sum_hessian":[7E0,5E0,2E0,1E0,4E0,1E0,1E0,3E0,1E0],"tree_param":{"num_deleted":"0","num_feature":"45","num_nodes":"9","size_leaf_vector":"1"}},{"base_weights":[-3.1139536E-3,-4.704371E-4,-9.704834E-4,1.3547421E-3,-2.6343018E-3,1.2850224E-4,1.394391E-5,-2.4467625E-4,-5.4473876E-5],"categories":[],"categories_nodes":[],"categories_segments":[],"categories_sizes":[],"default_left":[0,0,0,0,0,0,0,0,0],"id":34,"left_children":[1,3,-1,5,7,-1,-1,-1,-1],"loss_changes":[2.0882452E-4,3.5164325E-5,0E0,1.2046485E-6,1.2315395E-6,0E0,0E0,0E0,0E0],"parents":[2147483647,0,0,1,1,3,3,4,4],"right_children":[2,4,-1,6,8,-1,-1,-1,-1],"split_conditions":[7.916667E-1,1.86E2,-9.704834E-4,5.0053096E-1,4.450585E-1,1.2850224E-4,1.394391E-5,-2.4467625E-4,-5.4473876E-5],"split_indices":[18,5,0,0,0,0,0,0,0],"split_type":[0,0,0,0,0,0,0,0,0],"sum_hessian":[8E0,7E0,1E0,4E0,3E0,3E0,1E0,2E0,1E0],"tree_param":{"num_deleted":"0","num_feature":"45","num_nodes":"9","size_leaf_vector":"1"}},{"base_weights":[-4.031107E-4,-3.8306322E-3,8.871317E-3,-9.316641E-4,-1.0504936E-3,9.151852E-4,1.4937282E-4,5.279839E-5,-2.4983436E-3,-2.3162684E-4,-5.229473E-5],"categories":[],"categories_nodes":[],"categories_segments":[],"categories_sizes":[],"default_left":[0,0,0,0,0,0,0,0,0,0,0],"id":35,"left_children":[1,3,5,-1,7,-1,-1,-1,9,-1,-1],"loss_changes":[3.5186575E-4,1.615842E-4,3.2610536E-5,0E0,1.898442E-5,0E0,0E0,0E0,1.0366257E-6,0E0,0E0],"parents":[2147483647,0,0,1,1,2,2,4,4,8,8],"right_children":[2,4,6,-1,8,-1,-1,-1,10,-1,-1],"split_conditions":[3.25E2,1.68E2,4.8749077E-1,-9.316641E-4,1.86E2,9.151852E-4,1.4937282E-4,5.279839E-5,4.450585E-1,-2.3162684E-4,-5.229473E-5],"split_indices":[4,5,0,0,5,0,0,0,0,0,0],"split_type":[0,0,0,0,0,0,0,0,0,0,0],"sum_hessian":[9E0,7E0,2E0,1E0,6E0,1E0,1E0,3E0,3E0,2E0,1E0],"tree_param":{"num_deleted":"0","num_feature":"45","num_nodes":"11","size_leaf_vector":"1"}},{"base_weights":[-9.5921196E-4,-4.2340183E-3,8.7857724E-4,-8.943981E-4,-1.213029E-3,5.8657326E-5,-1.8955648E-4],"categories":[],"categories_nodes":[],"categories_segments":[],"categories_sizes":[],"default_left":[0,0,0,0,0,0,0],"id":36,"left_children":[1,3,-1,-1,5,-1,-1],"loss_changes":[3.5934575E-4,1.3332402E-4,0E0,0E0,1.524147E-5,0E0,0E0],"parents":[2147483647,0,0,1,1,4,4],"right_children":[2,4,-1,-1,6,-1,-1],"split_conditions":[3.25E2,1.68E2,8.7857724E-4,-8.943981E-4,1.86E2,5.8657326E-5,-1.8955648E-4],"split_indices":[4,5,0,0,5,0,0],"split_type":[0,0,0,0,0,0,0],"sum_hessian":[7E0,6E0,1E0,1E0,5E0,2E0,3E0],"tree_param":{"num_deleted":"0","num_feature":"45","num_nodes":"7","size_leaf_vector":"1"}},{"base_weights":[-2.8180927E-3,-4.8715994E-4,-8.586222E-4,8.019065E-5,-2.227299E-3,-2.0916462E-4,-4.2620897E-5],"categories":[],"categories_nodes":[],"categories_segments":[],"categories_sizes":[],"default_left":[0,0,0,0,0,0,0],"id":37,"left_children":[1,3,-1,-1,5,-1,-1],"loss_changes":[1.608088E-4,2.2968703E-5,0E0,0E0,1.2319633E-6,0E0,0E0],"parents":[2147483647,0,0,1,1,4,4],"right_children":[2,4,-1,-1,6,-1,-1],"split_conditions":[7.916667E-1,1.86E2,-8.586222E-4,8.019065E-5,4.450585E-1,-2.0916462E-4,-4.2620897E-5],"split_indices":[18,5,0,0,0,0,0],"split_type":[0,0,0,0,0,0,0],"sum_hessian":[8E0,7E0,1E0,4E0,3E0,2E0,1E0],"tree_param":{"num_deleted":"0","num_feature":"45","num_nodes":"7","size_leaf_vector":"1"}},{"base_weights":[-5.0480664E-4,-3.193615E-3,8.402264E-4,-7.0599996E-4,-8.2427677E-4,7.012546E-5,-2.1120682E-3,-1.9800982E-4,-4.0916202E-5],"categories":[],"categories_nodes":[],"categories_segments":[],"categories_sizes":[],"default_left":[0,0,0,0,0,0,0,0,0],"id":38,"left_children":[1,3,-1,5,-1,-1,7,-1,-1],"loss_changes":[2.9991881E-4,1.3421822E-4,0E0,1.7427765E-5,0E0,0E0,1.0585336E-6,0E0,0E0],"parents":[2147483647,0,0,1,1,3,3,6,6],"right_children":[2,4,-1,6,-1,-1,8,-1,-1],"split_conditions":[5.6149735E0,1E1,8.402264E-4,1.86E2,-8.2427677E-4,7.012546E-5,4.450585E-1,-1.9800982E-4,-4.0916202E-5],"split_indices":[6,2,0,5,0,0,0,0,0],"split_type":[0,0,0,0,0,0,0,0,0],"sum_hessian":[8E0,7E0,1E0,6E0,1E0,3E0,3E0,2E0,1E0],"tree_param":{"num_deleted":"0","num_feature":"45","num_nodes":"9","size_leaf_vector":"1"}},{"base_weights":[-8.027745E-4,-4.2974777E-3,8.066177E-4,-7.913059E-4,-1.2004435E-3,8.036494E-5,-1.6022682E-4],"categories":[],"categories_nodes":[],"categories_segments":[],"categories_sizes":[],"default_left":[0,0,0,0,0,0,0],"id":39,"left_children":[1,3,-1,-1,5,-1,-1],"loss_changes":[3.096213E-4,9.207203E-5,0E0,0E0,1.0858362E-5,0E0,0E0],"parents":[2147483647,0,0,1,1,4,4],"right_children":[2,4,-1,-1,6,-1,-1],"split_conditions":[3.13E2,1.68E2,8.066177E-4,-7.913059E-4,5.012051E-1,8.036494E-5,-1.6022682E-4],"split_indices":[4,5,0,0,1,0,0],"split_type":[0,0,0,0,0,0,0],"sum_hessian":[6E0,5E0,1E0,1E0,4E0,1E0,3E0],"tree_param":{"num_deleted":"0","num_feature":"45","num_nodes":"7","size_leaf_vector":"1"}},{"base_weights":[-3.3916085E-4,-2.5278246E-3,7.743525E-4,-4.6988577E-4,-7.5965346E-4,6.034565E-5,-1.8826723E-3,-1.7890453E-4,-3.287077E-5],"categories":[],"categories_nodes":[],"categories_segments":[],"categories_sizes":[],"default_left":[0,0,0,0,0,0,0,0,0],"id":40,"left_children":[1,3,-1,5,-1,-1,7,-1,-1],"loss_changes":[2.4374062E-4,1.2459268E-4,0E0,1.5256477E-5,0E0,0E0,1.1630345E-6,0E0,0E0],"parents":[2147483647,0,0,1,1,3,3,6,6],"right_children":[2,4,-1,6,-1,-1,8,-1,-1],"split_conditions":[5.6149735E0,7.916667E-1,7.743525E-4,1.86E2,-7.5965346E-4,6.034565E-5,5E0,-1.7890453E-4,-3.287077E-5],"split_indices":[6,18,0,5,0,0,2,0,0],"split_type":[0,0,0,0,0,0,0,0,0],"sum_hessian":[9E0,8E0,1E0,7E0,1E0,4E0,3E0,2E0,1E0],"tree_param":{"num_deleted":"0","num_feature":"45","num_nodes":"9","size_leaf_vector":"1"}},{"base_weights":[-2.4268313E-3,-4.512258E-4,-7.2926696E-4,7.060409E-4,-1.7850026E-3,9.486596E-5,-7.2717665E-7,-1.6936302E-4,-3.155589E-5],"categories":[],"categories_nodes":[],"categories_segments":[],"categories_sizes":[],"default_left":[0,0,0,0,0,0,0,0,0],"id":41,"left_children":[1,3,-1,5,7,-1,-1,-1,-1],"loss_changes":[1.14820235E-4,1.3608568E-5,0E0,1.7263183E-6,1.0117883E-6,0E0,0E0,0E0,0E0],"parents":[2147483647,0,0,1,1,3,3,4,4],"right_children":[2,4,-1,6,8,-1,-1,-1,-1],"split_conditions":[7.916667E-1,5.6058803E0,-7.2926696E-4,5.012051E-1,4.450585E-1,9.486596E-5,-7.2717665E-7,-1.6936302E-4,-3.155589E-5],"split_indices":[18,6,0,1,0,0,0,0,0],"split_type":[0,0,0,0,0,0,0,0,0],"sum_hessian":[8E0,7E0,1E0,4E0,3E0,2E0,2E0,2E0,1E0],"tree_param":{"num_deleted":"0","num_feature":"45","num_nodes":"9","size_leaf_vector":"1"}},{"base_weights":[-2.314195E-4,-2.3255795E-3,7.446408E-4,-7.000965E-4,-4.2847544E-4,6.683826E-4,-1.3539434E-4,8.9806716E-5,-6.8902966E-7],"categories":[],"categories_nodes":[],"categories_segments":[],"categories_sizes":[],"default_left":[0,0,0,0,0,0,0,0,0],"id":42,"left_children":[1,3,-1,-1,5,7,-1,-1,-1],"loss_changes":[2.2141745E-4,1.0596106E-4,0E0,0E0,1.2222213E-5,1.5471301E-6,0E0,0E0,0E0],"parents":[2147483647,0,0,1,1,4,4,5,5],"right_children":[2,4,-1,-1,6,8,-1,-1,-1],"split_conditions":[5.6149735E0,1.875E-1,7.446408E-4,-7.000965E-4,1.86E2,5.012051E-1,-1.3539434E-4,8.9806716E-5,-6.8902966E-7],"split_indices":[6,20,0,0,5,1,0,0,0],"split_type":[0,0,0,0,0,0,0,0,0],"sum_hessian":[9E0,8E0,1E0,1E0,7E0,4E0,3E0,2E0,2E0],"tree_param":{"num_deleted":"0","num_feature":"45","num_nodes":"9","size_leaf_vector":"1"}},{"base_weights":[-2.1307915E-4,-2.2224635E-3,7.1485515E-4,-3.999807E-4,-6.72093E-4,6.3273904E-4,-1.5908852E-3,8.501768E-5,-6.524721E-7,-2.4877787E-5,-1.5310923E-4],"categories":[],"categories_nodes":[],"categories_segments":[],"categories_sizes":[],"default_left":[0,0,0,0,0,0,0,0,0,0,0],"id":43,"left_children":[1,3,-1,5,-1,7,9,-1,-1,-1,-1],"loss_changes":[2.0369317E-4,9.7984856E-5,0E0,1.084558E-5,0E0,1.3865338E-6,1.0583872E-6,0E0,0E0,0E0,0E0],"parents":[2147483647,0,0,1,1,3,3,5,5,6,6],"right_children":[2,4,-1,6,-1,8,10,-1,-1,-1,-1],"split_conditions":[5.6149735E0,7.916667E-1,7.1485515E-4,1.86E2,-6.72093E-4,5.012051E-1,5.5967176E-1,8.501768E-5,-6.524721E-7,-2.4877787E-5,-1.5310923E-4],"split_indices":[6,18,0,5,0,1,1,0,0,0,0],"split_type":[0,0,0,0,0,0,0,0,0,0,0],"sum_hessian":[9E0,8E0,1E0,7E0,1E0,4E0,3E0,2E0,2E0,1E0,2E0],"tree_param":{"num_deleted":"0","num_feature":"45","num_nodes":"11","size_leaf_vector":"1"}},{"base_weights":[1.5687777E-3,-3.7968904E-4,6.8626046E-4,5.9899094E-4,-1.2064933E-4,8.048296E-5,-6.175041E-7],"categories":[],"categories_nodes":[],"categories_segments":[],"categories_sizes":[],"default_left":[0,0,0,0,0,0,0],"id":44,"left_children":[1,3,-1,5,-1,-1,-1],"loss_changes":[1.2617669E-4,9.738305E-6,0E0,1.2425595E-6,0E0,0E0,0E0],"parents":[2147483647,0,0,1,1,3,3],"right_children":[2,4,-1,6,-1,-1,-1],"split_conditions":[5.6149735E0,5.6058803E0,6.8626046E-4,5.012051E-1,-1.2064933E-4,8.048296E-5,-6.175041E-7],"split_indices":[6,6,0,1,0,0,0],"split_type":[0,0,0,0,0,0,0],"sum_hessian":[8E0,7E0,1E0,4E0,3E0,2E0,2E0],"tree_param":{"num_deleted":"0","num_feature":"45","num_nodes":"7","size_leaf_vector":"1"}},{"base_weights":[-2.494678E-4,-2.1072146E-3,6.5881014E-4,-3.5441667E-4,-6.451839E-4,3.9313236E-4,-1.3851006E-4,7.618983E-5,-9.966492E-6],"categories":[],"categories_nodes":[],"categories_segments":[],"categories_sizes":[],"default_left":[0,0,0,0,0,0,0,0,0],"id":45,"left_children":[1,3,-1,5,-1,7,-1,-1,-1],"loss_changes":[1.7497546E-4,9.112367E-5,0E0,8.9154155E-6,0E0,1.8558062E-6,0E0,0E0,0E0],"parents":[2147483647,0,0,1,1,3,3,5,5],"right_children":[2,4,-1,6,-1,8,-1,-1,-1],"split_conditions":[5.6149735E0,7.916667E-1,6.5881014E-4,5.6330276E-1,-6.451839E-4,5.012051E-1,-1.3851006E-4,7.618983E-5,-9.966492E-6],"split_indices":[6,18,0,1,0,1,0,0,0],"split_type":[0,0,0,0,0,0,0,0,0],"sum_hessian":[9E0,8E0,1E0,7E0,1E0,5E0,2E0,2E0,3E0],"tree_param":{"num_deleted":"0","num_feature":"45","num_nodes":"9","size_leaf_vector":"1"}},{"base_weights":[-2.939757E-4,-2.59475E-3,6.324577E-4,-4.4647357E-4,-6.193763E-4,-1.0767102E-4,7.212559E-5],"categories":[],"categories_nodes":[],"categories_segments":[],"categories_sizes":[],"default_left":[0,0,0,0,0,0,0],"id":46,"left_children":[1,3,-1,5,-1,-1,-1],"loss_changes":[1.7143857E-4,7.3950374E-5,0E0,8.4881085E-6,0E0,0E0,0E0],"parents":[2147483647,0,0,1,1,3,3],"right_children":[2,4,-1,6,-1,-1,-1],"split_conditions":[5.6149735E0,7.916667E-1,6.324577E-4,4.5675454E-1,-6.193763E-4,-1.0767102E-4,7.212559E-5],"split_indices":[6,18,0,0,0,0,0],"split_type":[0,0,0,0,0,0,0],"sum_hessian":[7E0,6E0,1E0,5E0,1E0,3E0,2E0],"tree_param":{"num_deleted":"0","num_feature":"45","num_nodes":"7","size_leaf_vector":"1"}},{"base_weights":[-2.5175512E-4,-2.1805968E-3,6.071591E-4,-3.6853552E-4,-5.9460104E-4,-1.2537956E-4,4.24397E-4,-1.1692842E-5,6.827911E-5],"categories":[],"categories_nodes":[],"categories_segments":[],"categories_sizes":[],"default_left":[0,0,0,0,0,0,0,0,0],"id":47,"left_children":[1,3,-1,5,-1,-1,7,-1,-1],"loss_changes":[1.526703E-4,7.3395204E-5,0E0,7.3186015E-6,0E0,0E0,1.3488542E-6,0E0,0E0],"parents":[2147483647,0,0,1,1,3,3,6,6],"right_children":[2,4,-1,6,-1,-1,8,-1,-1],"split_conditions":[5.6149735E0,7.916667E-1,6.071591E-4,4.450585E-1,-5.9460104E-4,-1.2537956E-4,4.5675454E-1,-1.1692842E-5,6.827911E-5],"split_indices":[6,18,0,0,0,0,0,0,0],"split_type":[0,0,0,0,0,0,0,0,0],"sum_hessian":[8E0,7E0,1E0,6E0,1E0,2E0,4E0,2E0,2E0],"tree_param":{"num_deleted":"0","num_feature":"45","num_nodes":"9","size_leaf_vector":"1"}},{"base_weights":[-2.2531384E-4,-2.074955E-3,5.828726E-4,-3.3274293E-4,-5.7081756E-4,-1.1869271E-4,4.2435527E-4,6.463766E-5,-8.056958E-6],"categories":[],"categories_nodes":[],"categories_segments":[],"categories_sizes":[],"default_left":[0,0,0,0,0,0,0,0,0],"id":48,"left_children":[1,3,-1,5,-1,-1,7,-1,-1],"loss_changes":[1.401555E-4,6.8154244E-5,0E0,6.729094E-6,0E0,0E0,1.088492E-6,0E0,0E0],"parents":[2147483647,0,0,1,1,3,3,6,6],"right_children":[2,4,-1,6,-1,-1,8,-1,-1],"split_conditions":[5.6149735E0,7.916667E-1,5.828726E-4,4.450585E-1,-5.7081756E-4,-1.1869271E-4,5.012051E-1,6.463766E-5,-8.056958E-6],"split_indices":[6,18,0,0,0,0,1,0,0],"split_type":[0,0,0,0,0,0,0,0,0],"sum_hessian":[8E0,7E0,1E0,6E0,1E0,2E0,4E0,2E0,2E0],"tree_param":{"num_deleted":"0","num_feature":"45","num_nodes":"9","size_leaf_vector":"1"}},{"base_weights":[1.3026661E-3,-2.8311834E-4,5.5955764E-4,-1.1236191E-4,3.247708E-4,6.119013E-5,-6.920099E-6],"categories":[],"categories_nodes":[],"categories_segments":[],"categories_sizes":[],"default_left":[0,0,0,0,0,0,0],"id":49,"left_children":[1,3,-1,-1,5,-1,-1],"loss_changes":[8.3214036E-5,5.9096706E-6,0E0,0E0,1.152182E-6,0E0,0E0],"parents":[2147483647,0,0,1,1,4,4],"right_children":[2,4,-1,-1,6,-1,-1],"split_conditions":[5.6149735E0,4.450585E-1,5.5955764E-4,-1.1236191E-4,5.012051E-1,6.119013E-5,-6.920099E-6],"split_indices":[6,0,0,0,1,0,0],"split_type":[0,0,0,0,0,0,0],"sum_hessian":[8E0,7E0,1E0,2E0,5E0,2E0,3E0],"tree_param":{"num_deleted":"0","num_feature":"45","num_nodes":"7","size_leaf_vector":"1"}},{"base_weights":[-3.0151196E-4,-2.263067E-3,5.371749E-4,-5.477089E-4,-3.5812458E-4,5.7926973E-5,-8.642018E-5],"categories":[],"categories_nodes":[],"categories_segments":[],"categories_sizes":[],"default_left":[0,0,0,0,0,0,0],"id":50,"left_children":[1,3,-1,-1,5,-1,-1],"loss_changes":[1.2529707E-4,5.866453E-5,0E0,0E0,5.471167E-6,0E0,0E0],"parents":[2147483647,0,0,1,1,4,4],"right_children":[2,4,-1,-1,6,-1,-1],"split_conditions":[1.6748276E1,1.875E-1,5.371749E-4,-5.477089E-4,5.012051E-1,5.7926973E-5,-8.642018E-5],"split_indices":[7,20,0,0,1,0,0],"split_type":[0,0,0,0,0,0,0],"sum_hessian":[7E0,6E0,1E0,1E0,5E0,2E0,3E0],"tree_param":{"num_deleted":"0","num_feature":"45","num_nodes":"7","size_leaf_vector":"1"}},{"base_weights":[-2.3326091E-4,-2.1083248E-3,5.1568745E-4,-2.6887655E-4,-5.2580057E-4,-1.01760226E-4,4.4054985E-5],"categories":[],"categories_nodes":[],"categories_segments":[],"categories_sizes":[],"default_left":[0,0,0,0,0,0,0],"id":51,"left_children":[1,3,-1,5,-1,-1,-1],"loss_changes":[1.137842E-4,5.5714238E-5,0E0,5.6332324E-6,0E0,0E0,0E0],"parents":[2147483647,0,0,1,1,3,3],"right_children":[2,4,-1,6,-1,-1,-1],"split_conditions":[5.6133714E0,7.916667E-1,5.1568745E-4,4.450585E-1,-5.2580057E-4,-1.01760226E-4,4.4054985E-5],"split_indices":[6,18,0,0,0,0,0],"split_type":[0,0,0,0,0,0,0],"sum_hessian":[7E0,6E0,1E0,5E0,1E0,2E0,3E0],"tree_param":{"num_deleted":"0","num_feature":"45","num_nodes":"7","size_leaf_vector":"1"}},{"base_weights":[-4.0338602E-4,-2.0008702E-3,4.950595E-4,-4.8396416E-4,-5.0476845E-4,1.972258E-5,-8.7477565E-5],"categories":[],"categories_nodes":[],"categories_segments":[],"categories_sizes":[],"default_left":[0,0,0,0,0,0,0],"id":52,"left_children":[1,3,-1,5,-1,-1,-1],"loss_changes":[1.0715209E-4,4.9233957E-5,0E0,3.3862657E-6,0E0,0E0,0E0],"parents":[2147483647,0,0,1,1,3,3],"right_children":[2,4,-1,6,-1,-1,-1],"split_conditions":[5.6149735E0,1E1,4.950595E-4,1.86E2,-5.0476845E-4,1.972258E-5,-8.7477565E-5],"split_indices":[6,2,0,5,0,0,0],"split_type":[0,0,0,0,0,0,0],"sum_hessian":[8E0,7E0,1E0,6E0,1E0,3E0,3E0],"tree_param":{"num_deleted":"0","num_feature":"45","num_nodes":"7","size_leaf_vector":"1"}},{"base_weights":[-1.8389671E-4,-1.5244898E-3,4.7525764E-4,-2.0074472E-4,-4.84578E-4,4.0088173E-5,-8.222937E-5],"categories":[],"categories_nodes":[],"categories_segments":[],"categories_sizes":[],"default_left":[0,0,0,0,0,0,0],"id":53,"left_children":[1,3,-1,5,-1,-1,-1],"loss_changes":[9.1162765E-5,5.278572E-5,0E0,5.1591733E-6,0E0,0E0,0E0],"parents":[2147483647,0,0,1,1,3,3],"right_children":[2,4,-1,6,-1,-1,-1],"split_conditions":[5.6149735E0,7.916667E-1,4.7525764E-4,5.6058803E0,-4.84578E-4,4.0088173E-5,-8.222937E-5],"split_indices":[6,18,0,6,0,0,0],"split_type":[0,0,0,0,0,0,0],"sum_hessian":[9E0,8E0,1E0,7E0,1E0,4E0,3E0],"tree_param":{"num_deleted":"0","num_feature":"45","num_nodes":"7","size_leaf_vector":"1"}},{"base_weights":[-1.7433017E-4,-1.4610538E-3,4.5624733E-4,-1.8995255E-4,-4.6519458E-4,3.7522794E-5,-7.7295896E-5],"categories":[],"categories_nodes":[],"categories_segments":[],"categories_sizes":[],"default_left":[0,0,0,0,0,0,0],"id":54,"left_children":[1,3,-1,5,-1,-1,-1],"loss_changes":[8.395871E-5,4.8703427E-5,0E0,4.545473E-6,0E0,0E0,0E0],"parents":[2147483647,0,0,1,1,3,3],"right_children":[2,4,-1,6,-1,-1,-1],"split_conditions":[5.6149735E0,7.916667E-1,4.5624733E-4,1.86E2,-4.6519458E-4,3.7522794E-5,-7.7295896E-5],"split_indices":[6,18,0,5,0,0,0],"split_type":[0,0,0,0,0,0,0],"sum_hessian":[9E0,8E0,1E0,7E0,1E0,4E0,3E0],"tree_param":{"num_deleted":"0","num_feature":"45","num_nodes":"7","size_leaf_vector":"1"}},{"base_weights":[-1.7161336E-4,-1.5618075E-3,4.3799757E-4,-4.465872E-4,-1.8996852E-4,-7.2657465E-5,4.6061872E-5],"categories":[],"categories_nodes":[],"categories_segments":[],"categories_sizes":[],"default_left":[0,0,0,0,0,0,0],"id":55,"left_children":[1,3,-1,-1,5,-1,-1],"loss_changes":[7.919947E-5,4.3063712E-5,0E0,0E0,4.372886E-6,0E0,0E0],"parents":[2147483647,0,0,1,1,4,4],"right_children":[2,4,-1,-1,6,-1,-1],"split_conditions":[5.6149735E0,1.875E-1,4.3799757E-4,-4.465872E-4,4.5675454E-1,-7.2657465E-5,4.6061872E-5],"split_indices":[6,20,0,0,0,0,0],"split_type":[0,0,0,0,0,0,0],"sum_hessian":[8E0,7E0,1E0,1E0,6E0,3E0,3E0],"tree_param":{"num_deleted":"0","num_feature":"45","num_nodes":"7","size_leaf_vector":"1"}},{"base_weights":[-1.6179847E-4,-1.4960151E-3,4.204774E-4,-1.7857552E-4,-4.287237E-4,-6.829798E-5,4.329741E-5],"categories":[],"categories_nodes":[],"categories_segments":[],"categories_sizes":[],"default_left":[0,0,0,0,0,0,0],"id":56,"left_children":[1,3,-1,5,-1,-1,-1],"loss_changes":[7.291927E-5,3.9757484E-5,0E0,3.8638254E-6,0E0,0E0,0E0],"parents":[2147483647,0,0,1,1,3,3],"right_children":[2,4,-1,6,-1,-1,-1],"split_conditions":[1.6748276E1,7.916667E-1,4.204774E-4,4.5675454E-1,-4.287237E-4,-6.829798E-5,4.329741E-5],"split_indices":[7,18,0,0,0,0,0],"split_type":[0,0,0,0,0,0,0],"sum_hessian":[8E0,7E0,1E0,6E0,1E0,3E0,3E0],"tree_param":{"num_deleted":"0","num_feature":"45","num_nodes":"7","size_leaf_vector":"1"}},{"base_weights":[-1.3399571E-4,-1.2701568E-3,4.0365814E-4,-1.4275685E-4,-4.1157423E-4,3.3086773E-5,-6.4199565E-5],"categories":[],"categories_nodes":[],"categories_segments":[],"categories_sizes":[],"default_left":[0,0,0,0,0,0,0],"id":57,"left_children":[1,3,-1,5,-1,-1,-1],"loss_changes":[6.525886E-5,3.857878E-5,0E0,3.2682156E-6,0E0,0E0,0E0],"parents":[2147483647,0,0,1,1,3,3],"right_children":[2,4,-1,6,-1,-1,-1],"split_conditions":[1.6748276E1,7.916667E-1,4.0365814E-4,1.86E2,-4.1157423E-4,3.3086773E-5,-6.4199565E-5],"split_indices":[7,18,0,5,0,0,0],"split_type":[0,0,0,0,0,0,0],"sum_hessian":[9E0,8E0,1E0,7E0,1E0,4E0,3E0],"tree_param":{"num_deleted":"0","num_feature":"45","num_nodes":"7","size_leaf_vector":"1"}},{"base_weights":[-1.2717993E-4,-1.2177312E-3,3.8751125E-4,-1.3522431E-4,-3.9511142E-4,3.096962E-5,-6.0347913E-5],"categories":[],"categories_nodes":[],"categories_segments":[],"categories_sizes":[],"default_left":[0,0,0,0,0,0,0],"id":58,"left_children":[1,3,-1,5,-1,-1,-1],"loss_changes":[6.011063E-5,3.558579E-5,0E0,2.8791947E-6,0E0,0E0,0E0],"parents":[2147483647,0,0,1,1,3,3],"right_children":[2,4,-1,6,-1,-1,-1],"split_conditions":[5.6149735E0,7.916667E-1,3.8751125E-4,1.86E2,-3.9511142E-4,3.096962E-5,-6.0347913E-5],"split_indices":[6,18,0,5,0,0,0],"split_type":[0,0,0,0,0,0,0],"sum_hessian":[9E0,8E0,1E0,7E0,1E0,4E0,3E0],"tree_param":{"num_deleted":"0","num_feature":"45","num_nodes":"7","size_leaf_vector":"1"}},{"base_weights":[-2.8384064E-4,-1.4818534E-3,3.7201046E-4,-3.3887796E-4,-3.7930725E-4,-6.8998335E-5,3.4446716E-6],"categories":[],"categories_nodes":[],"categories_segments":[],"categories_sizes":[],"default_left":[0,0,0,0,0,0,0],"id":59,"left_children":[1,3,-1,5,-1,-1,-1],"loss_changes":[6.008946E-5,2.819738E-5,0E0,1.4370135E-6,0E0,0E0,0E0],"parents":[2147483647,0,0,1,1,3,3],"right_children":[2,4,-1,6,-1,-1,-1],"split_conditions":[5.6149735E0,1E1,3.7201046E-4,4.450585E-1,-3.7930725E-4,-6.8998335E-5,3.4446716E-6],"split_indices":[6,2,0,0,0,0,0],"split_type":[0,0,0,0,0,0,0],"sum_hessian":[8E0,7E0,1E0,6E0,1E0,2E0,4E0],"tree_param":{"num_deleted":"0","num_feature":"45","num_nodes":"7","size_leaf_vector":"1"}},{"base_weights":[-4.93245E-5,-1.17152E-3,3.5712955E-4,-3.8398164E-5,-3.641349E-4,6.3122905E-5,-4.2174335E-5],"categories":[],"categories_nodes":[],"categories_segments":[],"categories_sizes":[],"default_left":[0,0,0,0,0,0,0],"id":60,"left_children":[1,3,-1,5,-1,-1,-1],"loss_changes":[5.0814506E-5,3.0466346E-5,0E0,3.2470039E-6,0E0,0E0,0E0],"parents":[2147483647,0,0,1,1,3,3],"right_children":[2,4,-1,6,-1,-1,-1],"split_conditions":[5.6133714E0,7.916667E-1,3.5712955E-4,5.012051E-1,-3.641349E-4,6.3122905E-5,-4.2174335E-5],"split_indices":[6,18,0,1,0,0,0],"split_type":[0,0,0,0,0,0,0],"sum_hessian":[8E0,7E0,1E0,6E0,1E0,2E0,4E0],"tree_param":{"num_deleted":"0","num_feature":"45","num_nodes":"7","size_leaf_vector":"1"}},{"base_weights":[-1.0039508E-4,-1.0638966E-3,3.4284472E-4,-1.0447949E-4,-3.495693E-4,5.9756436E-5,-4.1022697E-5],"categories":[],"categories_nodes":[],"categories_segments":[],"categories_sizes":[],"default_left":[0,0,0,0,0,0,0],"id":61,"left_children":[1,3,-1,5,-1,-1,-1],"loss_changes":[4.6818124E-5,2.808754E-5,0E0,3.1641825E-6,0E0,0E0,0E0],"parents":[2147483647,0,0,1,1,3,3],"right_children":[2,4,-1,6,-1,-1,-1],"split_conditions":[5.6149735E0,7.916667E-1,3.4284472E-4,5.012051E-1,-3.495693E-4,5.9756436E-5,-4.1022697E-5],"split_indices":[6,18,0,1,0,0,0],"split_type":[0,0,0,0,0,0,0],"sum_hessian":[9E0,8E0,1E0,7E0,1E0,2E0,5E0],"tree_param":{"num_deleted":"0","num_feature":"45","num_nodes":"7","size_leaf_vector":"1"}},{"base_weights":[-9.116977E-5,-1.0155522E-3,3.2913088E-4,-9.378791E-5,-3.3558666E-4,3.362036E-5,-5.703151E-5],"categories":[],"categories_nodes":[],"categories_segments":[],"categories_sizes":[],"default_left":[0,0,0,0,0,0,0],"id":62,"left_children":[1,3,-1,5,-1,-1,-1],"loss_changes":[4.305123E-5,2.5981506E-5,0E0,2.8455706E-6,0E0,0E0,0E0],"parents":[2147483647,0,0,1,1,3,3],"right_children":[2,4,-1,6,-1,-1,-1],"split_conditions":[5.6149735E0,7.916667E-1,3.2913088E-4,1.86E2,-3.3558666E-4,3.362036E-5,-5.703151E-5],"split_indices":[6,18,0,5,0,0,0],"split_type":[0,0,0,0,0,0,0],"sum_hessian":[9E0,8E0,1E0,7E0,1E0,4E0,3E0],"tree_param":{"num_deleted":"0","num_feature":"45","num_nodes":"7","size_leaf_vector":"1"}},{"base_weights":[-8.685887E-5,-9.741916E-4,3.1596542E-4,-8.92058E-5,-3.221631E-4,5.477667E-5,-3.690362E-5],"categories":[],"categories_nodes":[],"categories_segments":[],"categories_sizes":[],"default_left":[0,0,0,0,0,0,0],"id":63,"left_children":[1,3,-1,5,-1,-1,-1],"loss_changes":[3.966417E-5,2.3956301E-5,0E0,2.619575E-6,0E0,0E0,0E0],"parents":[2147483647,0,0,1,1,3,3],"right_children":[2,4,-1,6,-1,-1,-1],"split_conditions":[5.6149735E0,7.916667E-1,3.1596542E-4,5.012051E-1,-3.221631E-4,5.477667E-5,-3.690362E-5],"split_indices":[6,18,0,1,0,0,0],"split_type":[0,0,0,0,0,0,0],"sum_hessian":[9E0,8E0,1E0,7E0,1E0,2E0,5E0],"tree_param":{"num_deleted":"0","num_feature":"45","num_nodes":"7","size_leaf_vector":"1"}}]},"name":"gbtree"},"learner_model_param":{"base_score":"[3.2E-1]","boost_from_average":"1","num_class":"0","num_feature":"45","num_target":"1"},"objective":{"name":"reg:squarederror","reg_loss_param":{"scale_pos_weight":"1"}}},"version":[3,2,0]}