{"learner":{"attributes":{},"feature_names":["avg_4bit_group_sensitivity","avg_8bit_group_sensitivity","bit_count_2","bit_count_3","bit_count_4","bit_count_8","estimated_average_bit_width","estimated_weight_footprint_gb","high_sensitivity_8bit_fraction","linear_attn_in_proj_a_4bit_fraction","linear_attn_in_proj_a_8bit_fraction","linear_attn_in_proj_b_4bit_fraction","linear_attn_in_proj_b_8bit_fraction","linear_attn_in_proj_qkv_4bit_fraction","linear_attn_in_proj_qkv_8bit_fraction","linear_attn_in_proj_z_4bit_fraction","linear_attn_in_proj_z_8bit_fraction","linear_attn_out_proj_4bit_fraction","linear_attn_out_proj_8bit_fraction","low_sensitivity_8bit_fraction","mlp_down_proj_4bit_fraction","mlp_down_proj_8bit_fraction","mlp_gate_proj_4bit_fraction","mlp_gate_proj_8bit_fraction","mlp_up_proj_4bit_fraction","mlp_up_proj_8bit_fraction","num_groups","param_fraction_2","param_fraction_3","param_fraction_4","param_fraction_8","policy_alignment_score","report_estimated_average_bit_width","report_estimated_weight_footprint_gb","rule_hit_rate","self_attn_k_proj_4bit_fraction","self_attn_k_proj_8bit_fraction","self_attn_o_proj_4bit_fraction","self_attn_o_proj_8bit_fraction","self_attn_q_proj_4bit_fraction","self_attn_q_proj_8bit_fraction","self_attn_v_proj_4bit_fraction","self_attn_v_proj_8bit_fraction","total_parameters_billions","unsupported_low_bit_groups"],"feature_types":[],"gradient_booster":{"model":{"cats":{"enc":[],"feature_segments":[],"sorted_idx":[]},"gbtree_model_param":{"num_parallel_tree":"1","num_trees":"64"},"iteration_indptr":[0,1,2,3,4,5,6,7,8,9,10,11,12,13,14,15,16,17,18,19,20,21,22,23,24,25,26,27,28,29,30,31,32,33,34,35,36,37,38,39,40,41,42,43,44,45,46,47,48,49,50,51,52,53,54,55,56,57,58,59,60,61,62,63,64],"tree_info":[0,0,0,0,0,0,0,0,0,0,0,0,0,0,0,0,0,0,0,0,0,0,0,0,0,0,0,0,0,0,0,0,0,0,0,0,0,0,0,0,0,0,0,0,0,0,0,0,0,0,0,0,0,0,0,0,0,0,0,0,0,0,0,0],"trees":[{"base_weights":[2.1287374E-9,-1.866667E-2,2.4888897E-3,-2.8444445E-3,3.555552E-4],"categories":[],"categories_nodes":[],"categories_segments":[],"categories_sizes":[],"default_left":[0,0,0,0,0],"id":0,"left_children":[1,3,-1,-1,-1],"loss_changes":[4.6459283E-3,2.109629E-3,0E0,0E0,0E0],"parents":[2147483647,0,0,1,1],"right_children":[2,4,-1,-1,-1],"split_conditions":[3.13E2,4.9877363E-1,2.4888897E-3,-2.8444445E-3,3.555552E-4],"split_indices":[4,0,0,0,0],"split_type":[0,0,0,0,0],"sum_hessian":[6E0,4E0,2E0,2E0,2E0],"tree_param":{"num_deleted":"0","num_feature":"45","num_nodes":"5","size_leaf_vector":"1"}},{"base_weights":[1.0643687E-8,-1.7671105E-2,2.3561493E-3,-2.6927402E-3,3.3659296E-4],"categories":[],"categories_nodes":[],"categories_segments":[],"categories_sizes":[],"default_left":[0,0,0,0,0],"id":1,"left_children":[1,3,-1,-1,-1],"loss_changes":[4.163577E-3,1.8906036E-3,0E0,0E0,0E0],"parents":[2147483647,0,0,1,1],"right_children":[2,4,-1,-1,-1],"split_conditions":[3.13E2,4.9877363E-1,2.3561493E-3,-2.6927402E-3,3.3659296E-4],"split_indices":[4,0,0,0,0],"split_type":[0,0,0,0,0],"sum_hessian":[6E0,4E0,2E0,2E0,2E0],"tree_param":{"num_deleted":"0","num_feature":"45","num_nodes":"5","size_leaf_vector":"1"}},{"base_weights":[1.0643687E-8,-1.6728649E-2,2.2304885E-3,-2.5491281E-3,3.1864166E-4],"categories":[],"categories_nodes":[],"categories_segments":[],"categories_sizes":[],"default_left":[0,0,0,0,0],"id":2,"left_children":[1,3,-1,-1,-1],"loss_changes":[3.7313066E-3,1.6943179E-3,0E0,0E0,0E0],"parents":[2147483647,0,0,1,1],"right_children":[2,4,-1,-1,-1],"split_conditions":[3.13E2,4.9877363E-1,2.2304885E-3,-2.5491281E-3,3.1864166E-4],"split_indices":[4,0,0,0,0],"split_type":[0,0,0,0,0],"sum_hessian":[6E0,4E0,2E0,2E0,2E0],"tree_param":{"num_deleted":"0","num_feature":"45","num_nodes":"5","size_leaf_vector":"1"}},{"base_weights":[1.08745145E-2,-3.4838095E-3,2.1115285E-3,-1.0098803E-3,3.0164717E-4],"categories":[],"categories_nodes":[],"categories_segments":[],"categories_sizes":[],"default_left":[0,0,0,0,0],"id":3,"left_children":[1,3,-1,-1,-1],"loss_changes":[1.4289643E-3,3.1281E-4,0E0,0E0,0E0],"parents":[2147483647,0,0,1,1],"right_children":[2,4,-1,-1,-1],"split_conditions":[3.13E2,4.450585E-1,2.1115285E-3,-1.0098803E-3,3.0164717E-4],"split_indices":[4,0,0,0,0],"split_type":[0,0,0,0,0],"sum_hessian":[5E0,3E0,2E0,1E0,2E0],"tree_param":{"num_deleted":"0","num_feature":"45","num_nodes":"5","size_leaf_vector":"1"}},{"base_weights":[-5.882957E-4,-1.581547E-2,1.998914E-3,-2.394288E-3,2.855587E-4],"categories":[],"categories_nodes":[],"categories_segments":[],"categories_sizes":[],"default_left":[0,0,0,0,0],"id":4,"left_children":[1,3,-1,-1,-1],"loss_changes":[3.1211872E-3,1.4747416E-3,0E0,0E0,0E0],"parents":[2147483647,0,0,1,1],"right_children":[2,4,-1,-1,-1],"split_conditions":[3.13E2,4.9877363E-1,1.998914E-3,-2.394288E-3,2.855587E-4],"split_indices":[4,0,0,0,0],"split_type":[0,0,0,0,0],"sum_hessian":[6E0,4E0,2E0,2E0,2E0],"tree_param":{"num_deleted":"0","num_feature":"45","num_nodes":"5","size_leaf_vector":"1"}},{"base_weights":[-5.5691815E-4,1.892306E-3,-1.4971981E-2,-2.2665926E-3,2.703285E-4],"categories":[],"categories_nodes":[],"categories_segments":[],"categories_sizes":[],"default_left":[0,0,0,0,0],"id":5,"left_children":[1,-1,3,-1,-1],"loss_changes":[2.79714E-3,0E0,1.32163E-3,0E0,0E0],"parents":[2147483647,0,0,2,2],"right_children":[2,-1,4,-1,-1],"split_conditions":[7.916667E-1,1.892306E-3,4.9877363E-1,-2.2665926E-3,2.703285E-4],"split_indices":[14,0,0,0,0],"split_type":[0,0,0,0,0],"sum_hessian":[6E0,2E0,4E0,2E0,2E0],"tree_param":{"num_deleted":"0","num_feature":"45","num_nodes":"5","size_leaf_vector":"1"}},{"base_weights":[-5.27218E-4,-1.4173481E-2,1.7913835E-3,-2.145708E-3,2.5591053E-4],"categories":[],"categories_nodes":[],"categories_segments":[],"categories_sizes":[],"default_left":[0,0,0,0,0],"id":6,"left_children":[1,3,-1,-1,-1],"loss_changes":[2.5067364E-3,1.1844152E-3,0E0,0E0,0E0],"parents":[2147483647,0,0,1,1],"right_children":[2,4,-1,-1,-1],"split_conditions":[3.13E2,4.9877363E-1,1.7913835E-3,-2.145708E-3,2.5591053E-4],"split_indices":[4,0,0,0,0],"split_type":[0,0,0,0,0],"sum_hessian":[6E0,4E0,2E0,2E0,2E0],"tree_param":{"num_deleted":"0","num_feature":"45","num_nodes":"5","size_leaf_vector":"1"}},{"base_weights":[-1.3393536E-3,-1.7907556E-2,1.6958427E-3,-2.0312702E-3,1.816964E-4],"categories":[],"categories_nodes":[],"categories_segments":[],"categories_sizes":[],"default_left":[0,0,0,0,0],"id":7,"left_children":[1,3,-1,-1,-1],"loss_changes":[2.6200288E-3,6.6168467E-4,0E0,0E0,0E0],"parents":[2147483647,0,0,1,1],"right_children":[2,4,-1,-1,-1],"split_conditions":[3.13E2,4.9877363E-1,1.6958427E-3,-2.0312702E-3,1.816964E-4],"split_indices":[4,0,0,0,0],"split_type":[0,0,0,0,0],"sum_hessian":[5E0,3E0,2E0,2E0,1E0],"tree_param":{"num_deleted":"0","num_feature":"45","num_nodes":"5","size_leaf_vector":"1"}},{"base_weights":[-4.5518152E-4,8.920759E-3,-2.2684329E-3,-1.6694665E-3,1.6053979E-3,-6.1597105E-4,2.3257096E-4],"categories":[],"categories_nodes":[],"categories_segments":[],"categories_sizes":[],"default_left":[0,0,0,0,0,0,0],"id":8,"left_children":[1,3,-1,5,-1,-1,-1],"loss_changes":[2.0840883E-3,7.4177934E-4,0E0,1.3277473E-4,0E0,0E0,0E0],"parents":[2147483647,0,0,1,1,3,3],"right_children":[2,4,-1,6,-1,-1,-1],"split_conditions":[7.916667E-1,3.13E2,-2.2684329E-3,4.450585E-1,1.6053979E-3,-6.1597105E-4,2.3257096E-4],"split_indices":[18,4,0,0,0,0,0],"split_type":[0,0,0,0,0,0,0],"sum_hessian":[6E0,5E0,1E0,3E0,2E0,1E0,2E0],"tree_param":{"num_deleted":"0","num_feature":"45","num_nodes":"7","size_leaf_vector":"1"}},{"base_weights":[-1.3509864E-3,-1.6274389E-2,1.519777E-3,-1.8460182E-3,1.6512512E-4],"categories":[],"categories_nodes":[],"categories_segments":[],"categories_sizes":[],"default_left":[0,0,0,0,0],"id":9,"left_children":[1,3,-1,-1,-1],"loss_changes":[2.1311543E-3,5.464961E-4,0E0,0E0,0E0],"parents":[2147483647,0,0,1,1],"right_children":[2,4,-1,-1,-1],"split_conditions":[3.125E-1,4.9877363E-1,1.519777E-3,-1.8460182E-3,1.6512512E-4],"split_indices":[13,0,0,0,0],"split_type":[0,0,0,0,0],"sum_hessian":[5E0,3E0,2E0,2E0,1E0],"tree_param":{"num_deleted":"0","num_feature":"45","num_nodes":"5","size_leaf_vector":"1"}},{"base_weights":[-5.2222394E-4,8.156802E-3,-2.103855E-3,-1.2528226E-3,1.4387226E-3,-5.174911E-4,2.1135964E-4],"categories":[],"categories_nodes":[],"categories_segments":[],"categories_sizes":[],"default_left":[0,0,0,0,0,0,0],"id":10,"left_children":[1,3,-1,5,-1,-1,-1],"loss_changes":[1.7804808E-3,5.773541E-4,0E0,9.834874E-5,0E0,0E0,0E0],"parents":[2147483647,0,0,1,1,3,3],"right_children":[2,4,-1,6,-1,-1,-1],"split_conditions":[7.916667E-1,3.13E2,-2.103855E-3,4.450585E-1,1.4387226E-3,-5.174911E-4,2.1135964E-4],"split_indices":[18,4,0,0,0,0,0],"split_type":[0,0,0,0,0,0,0],"sum_hessian":[6E0,5E0,1E0,3E0,2E0,1E0,2E0],"tree_param":{"num_deleted":"0","num_feature":"45","num_nodes":"7","size_leaf_vector":"1"}},{"base_weights":[-4.9786195E-3,-2.0197004E-3,4.1241585E-3,-4.967916E-4,8.260146E-3,1.0214924E-3,2.0008722E-4],"categories":[],"categories_nodes":[],"categories_segments":[],"categories_sizes":[],"default_left":[0,0,0,0,0,0,0],"id":11,"left_children":[1,-1,3,-1,5,-1,-1],"loss_changes":[1.2110703E-3,0E0,2.650022E-4,0E0,7.192348E-5,0E0,0E0],"parents":[2147483647,0,0,2,2,4,4],"right_children":[2,-1,4,-1,6,-1,-1],"split_conditions":[5.4473476E0,-2.0197004E-3,4.450585E-1,-4.967916E-4,4.8749077E-1,1.0214924E-3,2.0008722E-4],"split_indices":[6,0,0,0,0,0,0],"split_type":[0,0,0,0,0,0,0],"sum_hessian":[5E0,1E0,4E0,1E0,3E0,1E0,2E0],"tree_param":{"num_deleted":"0","num_feature":"45","num_nodes":"7","size_leaf_vector":"1"}},{"base_weights":[-7.952377E-4,-1.4211062E-2,1.3886086E-3,-2.013193E-2,1.420617E-4,-4.769194E-4,-1.9389122E-3],"categories":[],"categories_nodes":[],"categories_segments":[],"categories_sizes":[],"default_left":[0,0,0,0,0,0,0],"id":12,"left_children":[1,3,-1,5,-1,-1,-1],"loss_changes":[1.7078824E-3,4.143734E-4,0E0,3.0001393E-5,0E0,0E0,0E0],"parents":[2147483647,0,0,1,1,3,3],"right_children":[2,4,-1,6,-1,-1,-1],"split_conditions":[3.13E2,4.9877363E-1,1.3886086E-3,4.450585E-1,1.420617E-4,-4.769194E-4,-1.9389122E-3],"split_indices":[4,0,0,0,0,0,0],"split_type":[0,0,0,0,0,0,0],"sum_hessian":[5E0,3E0,2E0,2E0,1E0,1E0,1E0],"tree_param":{"num_deleted":"0","num_feature":"45","num_nodes":"7","size_leaf_vector":"1"}},{"base_weights":[-2.66486E-4,-1.8613558E-3,7.444749E-3,-1.1567771E-3,1.3145495E-3,-4.5784234E-4,1.8183867E-4],"categories":[],"categories_nodes":[],"categories_segments":[],"categories_sizes":[],"default_left":[0,0,0,0,0,0,0],"id":13,"left_children":[1,-1,3,5,-1,-1,-1],"loss_changes":[1.4147505E-3,0E0,4.828257E-4,7.5652955E-5,0E0,0E0,0E0],"parents":[2147483647,0,0,2,2,3,3],"right_children":[2,-1,4,6,-1,-1,-1],"split_conditions":[1.875E-1,-1.8613558E-3,3.13E2,4.450585E-1,1.3145495E-3,-4.5784234E-4,1.8183867E-4],"split_indices":[20,0,4,0,0,0,0],"split_type":[0,0,0,0,0,0,0],"sum_hessian":[6E0,1E0,5E0,3E0,2E0,1E0,2E0],"tree_param":{"num_deleted":"0","num_feature":"45","num_nodes":"7","size_leaf_vector":"1"}},{"base_weights":[7.0222667E-3,-1.1332259E-3,1.2444401E-3,-4.3952823E-4,1.721414E-4],"categories":[],"categories_nodes":[],"categories_segments":[],"categories_sizes":[],"default_left":[0,0,0,0,0],"id":14,"left_children":[1,3,-1,-1,-1],"loss_changes":[4.351843E-4,6.912383E-5,0E0,0E0,0E0],"parents":[2147483647,0,0,1,1],"right_children":[2,4,-1,-1,-1],"split_conditions":[3.13E2,4.450585E-1,1.2444401E-3,-4.3952823E-4,1.721414E-4],"split_indices":[4,0,0,0,0],"split_type":[0,0,0,0,0],"sum_hessian":[5E0,3E0,2E0,1E0,2E0],"tree_param":{"num_deleted":"0","num_feature":"45","num_nodes":"5","size_leaf_vector":"1"}},{"base_weights":[6.623333E-3,-1.1094138E-3,1.1780707E-3,-4.2194722E-4,1.6296068E-4],"categories":[],"categories_nodes":[],"categories_segments":[],"categories_sizes":[],"default_left":[0,0,0,0,0],"id":15,"left_children":[1,3,-1,-1,-1],"loss_changes":[3.9226693E-4,6.316235E-5,0E0,0E0,0E0],"parents":[2147483647,0,0,1,1],"right_children":[2,4,-1,-1,-1],"split_conditions":[3.13E2,4.450585E-1,1.1780707E-3,-4.2194722E-4,1.6296068E-4],"split_indices":[4,0,0,0,0],"split_type":[0,0,0,0,0],"sum_hessian":[5E0,3E0,2E0,1E0,2E0],"tree_param":{"num_deleted":"0","num_feature":"45","num_nodes":"5","size_leaf_vector":"1"}},{"base_weights":[-1.0753891E-3,6.246651E-3,-1.8003052E-3,-1.085408E-3,1.115241E-3,-4.050696E-4,1.5426952E-4],"categories":[],"categories_nodes":[],"categories_segments":[],"categories_sizes":[],"default_left":[0,0,0,0,0,0,0],"id":16,"left_children":[1,3,-1,5,-1,-1,-1],"loss_changes":[1.2388721E-3,3.5360223E-4,0E0,5.771881E-5,0E0,0E0,0E0],"parents":[2147483647,0,0,1,1,3,3],"right_children":[2,4,-1,6,-1,-1,-1],"split_conditions":[7.916667E-1,3.125E-1,-1.8003052E-3,4.450585E-1,1.115241E-3,-4.050696E-4,1.5426952E-4],"split_indices":[18,13,0,0,0,0,0],"split_type":[0,0,0,0,0,0,0],"sum_hessian":[6E0,5E0,1E0,3E0,2E0,1E0,2E0],"tree_param":{"num_deleted":"0","num_feature":"45","num_nodes":"7","size_leaf_vector":"1"}},{"base_weights":[-1.1230473E-3,5.8910004E-3,-1.7282933E-3,1.0557619E-3,-1.0612682E-3,1.4604251E-4,-3.8886667E-4],"categories":[],"categories_nodes":[],"categories_segments":[],"categories_sizes":[],"default_left":[0,0,0,0,0,0,0],"id":17,"left_children":[1,3,-1,-1,5,-1,-1],"loss_changes":[1.1328314E-3,3.1876622E-4,0E0,0E0,5.2747935E-5,0E0,0E0],"parents":[2147483647,0,0,1,1,4,4],"right_children":[2,4,-1,-1,6,-1,-1],"split_conditions":[7.916667E-1,7.916667E-1,-1.7282933E-3,1.0557619E-3,5.0188684E-1,1.4604251E-4,-3.8886667E-4],"split_indices":[18,14,0,0,1,0,0],"split_type":[0,0,0,0,0,0,0],"sum_hessian":[6E0,5E0,1E0,2E0,3E0,2E0,1E0],"tree_param":{"num_deleted":"0","num_feature":"45","num_nodes":"7","size_leaf_vector":"1"}},{"base_weights":[-1.1639616E-3,-1.6591614E-3,5.5552176E-3,-1.0370687E-3,9.994555E-4,-3.733122E-4,1.3825417E-4],"categories":[],"categories_nodes":[],"categories_segments":[],"categories_sizes":[],"default_left":[0,0,0,0,0,0,0],"id":18,"left_children":[1,-1,3,5,-1,-1,-1],"loss_changes":[1.0359342E-3,0E0,2.8737902E-4,4.8208378E-5,0E0,0E0,0E0],"parents":[2147483647,0,0,2,2,3,3],"right_children":[2,-1,4,6,-1,-1,-1],"split_conditions":[1.875E-1,-1.6591614E-3,3.13E2,4.450585E-1,9.994555E-4,-3.733122E-4,1.3825417E-4],"split_indices":[20,0,4,0,0,0,0],"split_type":[0,0,0,0,0,0,0],"sum_hessian":[6E0,1E0,5E0,3E0,2E0,1E0,2E0],"tree_param":{"num_deleted":"0","num_feature":"45","num_nodes":"7","size_leaf_vector":"1"}},{"base_weights":[-1.1986686E-3,5.2382E-3,-1.5927952E-3,-1.0128692E-3,9.461514E-4,-3.5838006E-4,1.3088067E-4],"categories":[],"categories_nodes":[],"categories_segments":[],"categories_sizes":[],"default_left":[0,0,0,0,0,0,0],"id":19,"left_children":[1,3,-1,5,-1,-1,-1],"loss_changes":[9.4738626E-4,2.5909732E-4,0E0,4.4062293E-5,0E0,0E0,0E0],"parents":[2147483647,0,0,1,1,3,3],"right_children":[2,4,-1,6,-1,-1,-1],"split_conditions":[7.916667E-1,3.13E2,-1.5927952E-3,4.450585E-1,9.461514E-4,-3.5838006E-4,1.3088067E-4],"split_indices":[18,4,0,0,0,0,0],"split_type":[0,0,0,0,0,0,0],"sum_hessian":[6E0,5E0,1E0,3E0,2E0,1E0,2E0],"tree_param":{"num_deleted":"0","num_feature":"45","num_nodes":"7","size_leaf_vector":"1"}},{"base_weights":[-1.227662E-3,4.9389102E-3,-1.5290838E-3,-9.887218E-4,8.9568936E-4,-3.4404514E-4,1.2389976E-4],"categories":[],"categories_nodes":[],"categories_segments":[],"categories_sizes":[],"default_left":[0,0,0,0,0,0,0],"id":20,"left_children":[1,3,-1,5,-1,-1,-1],"loss_changes":[8.6646236E-4,2.3361236E-4,0E0,4.0275278E-5,0E0,0E0,0E0],"parents":[2147483647,0,0,1,1,3,3],"right_children":[2,4,-1,6,-1,-1,-1],"split_conditions":[7.916667E-1,3.13E2,-1.5290838E-3,4.450585E-1,8.9568936E-4,-3.4404514E-4,1.2389976E-4],"split_indices":[18,4,0,0,0,0,0],"split_type":[0,0,0,0,0,0,0],"sum_hessian":[6E0,5E0,1E0,3E0,2E0,1E0,2E0],"tree_param":{"num_deleted":"0","num_feature":"45","num_nodes":"7","size_leaf_vector":"1"}},{"base_weights":[-1.2513761E-3,4.6563945E-3,-1.4679199E-3,-9.646565E-4,8.479198E-4,-3.3028363E-4,1.172924E-4],"categories":[],"categories_nodes":[],"categories_segments":[],"categories_sizes":[],"default_left":[0,0,0,0,0,0,0],"id":21,"left_children":[1,3,-1,5,-1,-1,-1],"loss_changes":[7.9250196E-4,2.1064641E-4,0E0,3.681636E-5,0E0,0E0,0E0],"parents":[2147483647,0,0,1,1,3,3],"right_children":[2,4,-1,6,-1,-1,-1],"split_conditions":[7.916667E-1,3.13E2,-1.4679199E-3,4.450585E-1,8.479198E-4,-3.3028363E-4,1.172924E-4],"split_indices":[18,4,0,0,0,0,0],"split_type":[0,0,0,0,0,0,0],"sum_hessian":[6E0,5E0,1E0,3E0,2E0,1E0,2E0],"tree_param":{"num_deleted":"0","num_feature":"45","num_nodes":"7","size_leaf_vector":"1"}},{"base_weights":[-4.2438433E-3,-1.4092034E-3,1.953405E-3,-3.1707287E-4,4.423462E-3,5.411994E-4,1.110363E-4],"categories":[],"categories_nodes":[],"categories_segments":[],"categories_sizes":[],"default_left":[0,0,0,0,0,0,0],"id":22,"left_children":[1,-1,3,-1,5,-1,-1],"loss_changes":[5.315972E-4,0E0,9.060635E-5,0E0,1.904145E-5,0E0,0E0],"parents":[2147483647,0,0,2,2,4,4],"right_children":[2,-1,4,-1,6,-1,-1],"split_conditions":[1.68E2,-1.4092034E-3,4.450585E-1,-3.1707287E-4,4.8749077E-1,5.411994E-4,1.110363E-4],"split_indices":[5,0,0,0,0,0,0],"split_type":[0,0,0,0,0,0,0],"sum_hessian":[5E0,1E0,4E0,1E0,3E0,1E0,2E0],"tree_param":{"num_deleted":"0","num_feature":"45","num_nodes":"7","size_leaf_vector":"1"}},{"base_weights":[-9.3138433E-4,4.5501986E-3,-1.3528352E-3,-9.169951E-4,8.258446E-4,-3.0439018E-4,1.05113984E-4],"categories":[],"categories_nodes":[],"categories_segments":[],"categories_sizes":[],"default_left":[0,0,0,0,0,0,0],"id":23,"left_children":[1,3,-1,5,-1,-1,-1],"loss_changes":[6.900796E-4,1.9883424E-4,0E0,3.076986E-5,0E0,0E0,0E0],"parents":[2147483647,0,0,1,1,3,3],"right_children":[2,4,-1,6,-1,-1,-1],"split_conditions":[7.916667E-1,3.13E2,-1.3528352E-3,4.450585E-1,8.258446E-4,-3.0439018E-4,1.05113984E-4],"split_indices":[18,4,0,0,0,0,0],"split_type":[0,0,0,0,0,0,0],"sum_hessian":[6E0,5E0,1E0,3E0,2E0,1E0,2E0],"tree_param":{"num_deleted":"0","num_feature":"45","num_nodes":"7","size_leaf_vector":"1"}},{"base_weights":[-3.9798194E-3,-1.2987214E-3,1.7178238E-3,3.973618E-3,-2.9221416E-4,9.950797E-5,4.8651695E-4],"categories":[],"categories_nodes":[],"categories_segments":[],"categories_sizes":[],"default_left":[0,0,0,0,0,0,0],"id":24,"left_children":[1,-1,3,5,-1,-1,-1],"loss_changes":[4.4680748E-4,0E0,7.508807E-5,1.5451282E-5,0E0,0E0,0E0],"parents":[2147483647,0,0,2,2,3,3],"right_children":[2,-1,4,6,-1,-1,-1],"split_conditions":[1.68E2,-1.2987214E-3,5.670515E-1,5.0188684E-1,-2.9221416E-4,9.950797E-5,4.8651695E-4],"split_indices":[5,0,1,1,0,0,0],"split_type":[0,0,0,0,0,0,0],"sum_hessian":[5E0,1E0,4E0,3E0,1E0,2E0,1E0],"tree_param":{"num_deleted":"0","num_feature":"45","num_nodes":"7","size_leaf_vector":"1"}},{"base_weights":[-1.0477528E-3,-9.104047E-3,8.0345786E-4,-1.2467724E-3,-1.7489592E-3,-2.8052568E-4,7.0650574E-5],"categories":[],"categories_nodes":[],"categories_segments":[],"categories_sizes":[],"default_left":[0,0,0,0,0,0,0],"id":25,"left_children":[1,3,-1,-1,5,-1,-1],"loss_changes":[6.27547E-4,1.6340482E-4,0E0,0E0,1.6975351E-5,0E0,0E0],"parents":[2147483647,0,0,1,1,4,4],"right_children":[2,4,-1,-1,6,-1,-1],"split_conditions":[3.13E2,1.68E2,8.0345786E-4,-1.2467724E-3,4.450585E-1,-2.8052568E-4,7.0650574E-5],"split_indices":[4,5,0,0,0,0,0],"split_type":[0,0,0,0,0,0,0],"sum_hessian":[5E0,3E0,2E0,1E0,2E0,1E0,1E0],"tree_param":{"num_deleted":"0","num_feature":"45","num_nodes":"7","size_leaf_vector":"1"}},{"base_weights":[-6.773152E-4,4.1968874E-3,-1.1969012E-3,-8.3535165E-4,7.6060614E-4,-2.693045E-4,9.0432164E-5],"categories":[],"categories_nodes":[],"categories_segments":[],"categories_sizes":[],"default_left":[0,0,0,0,0,0,0],"id":26,"left_children":[1,3,-1,5,-1,-1,-1],"loss_changes":[5.5015075E-4,1.6829013E-4,0E0,2.3706216E-5,0E0,0E0,0E0],"parents":[2147483647,0,0,1,1,3,3],"right_children":[2,4,-1,6,-1,-1,-1],"split_conditions":[7.916667E-1,3.13E2,-1.1969012E-3,4.450585E-1,7.6060614E-4,-2.693045E-4,9.0432164E-5],"split_indices":[18,4,0,0,0,0,0],"split_type":[0,0,0,0,0,0,0],"sum_hessian":[6E0,5E0,1E0,3E0,2E0,1E0,2E0],"tree_param":{"num_deleted":"0","num_feature":"45","num_nodes":"7","size_leaf_vector":"1"}},{"base_weights":[-7.1101316E-4,3.958091E-3,-1.1490255E-3,-8.132383E-4,7.2003994E-4,-2.5853276E-4,8.560975E-5],"categories":[],"categories_nodes":[],"categories_segments":[],"categories_sizes":[],"default_left":[0,0,0,0,0,0,0],"id":27,"left_children":[1,3,-1,5,-1,-1,-1],"loss_changes":[5.030413E-4,1.516735E-4,0E0,2.1677304E-5,0E0,0E0,0E0],"parents":[2147483647,0,0,1,1,3,3],"right_children":[2,4,-1,6,-1,-1,-1],"split_conditions":[7.916667E-1,3.13E2,-1.1490255E-3,4.450585E-1,7.2003994E-4,-2.5853276E-4,8.560975E-5],"split_indices":[18,4,0,0,0,0,0],"split_type":[0,0,0,0,0,0,0],"sum_hessian":[6E0,5E0,1E0,3E0,2E0,1E0,2E0],"tree_param":{"num_deleted":"0","num_feature":"45","num_nodes":"7","size_leaf_vector":"1"}},{"base_weights":[4.1752337E-3,-1.561741E-3,6.8163715E-4,-2.4819135E-4,6.078243E-5],"categories":[],"categories_nodes":[],"categories_segments":[],"categories_sizes":[],"default_left":[0,0,0,0,0],"id":28,"left_children":[1,3,-1,-1,-1],"loss_changes":[1.3794914E-4,1.3087099E-5,0E0,0E0,0E0],"parents":[2147483647,0,0,1,1],"right_children":[2,4,-1,-1,-1],"split_conditions":[3.13E2,4.450585E-1,6.8163715E-4,-2.4819135E-4,6.078243E-5],"split_indices":[4,0,0,0,0],"split_type":[0,0,0,0,0],"sum_hessian":[4E0,2E0,2E0,1E0,1E0],"tree_param":{"num_deleted":"0","num_feature":"45","num_nodes":"5","size_leaf_vector":"1"}},{"base_weights":[3.5265088E-3,-7.597655E-4,6.452831E-4,-2.382636E-4,7.780075E-5],"categories":[],"categories_nodes":[],"categories_segments":[],"categories_sizes":[],"default_left":[0,0,0,0,0],"id":29,"left_children":[1,3,-1,-1,-1],"loss_changes":[1.228743E-4,1.8268833E-5,0E0,0E0,0E0],"parents":[2147483647,0,0,1,1],"right_children":[2,4,-1,-1,-1],"split_conditions":[3.13E2,4.450585E-1,6.452831E-4,-2.382636E-4,7.780075E-5],"split_indices":[4,0,0,0,0],"split_type":[0,0,0,0,0],"sum_hessian":[5E0,3E0,2E0,1E0,2E0],"tree_param":{"num_deleted":"0","num_feature":"45","num_nodes":"5","size_leaf_vector":"1"}},{"base_weights":[-1.5241727E-3,3.714037E-3,-1.1086088E-3,-1.4457902E-3,6.1086816E-4,-2.2873282E-4,5.5238008E-5],"categories":[],"categories_nodes":[],"categories_segments":[],"categories_sizes":[],"default_left":[0,0,0,0,0,0,0],"id":30,"left_children":[1,3,-1,5,-1,-1,-1],"loss_changes":[4.3909848E-4,1.1221927E-4,0E0,1.103218E-5,0E0,0E0,0E0],"parents":[2147483647,0,0,1,1,3,3],"right_children":[2,4,-1,6,-1,-1,-1],"split_conditions":[1E1,3.125E-1,-1.1086088E-3,4.450585E-1,6.1086816E-4,-2.2873282E-4,5.5238008E-5],"split_indices":[2,13,0,0,0,0,0],"split_type":[0,0,0,0,0,0,0],"sum_hessian":[5E0,4E0,1E0,2E0,2E0,1E0,1E0],"tree_param":{"num_deleted":"0","num_feature":"45","num_nodes":"7","size_leaf_vector":"1"}},{"base_weights":[-9.4215147E-4,3.3352573E-3,-1.0642641E-3,-4.1857362E-4,5.7828904E-4,1.0174115E-4,-2.1958351E-4],"categories":[],"categories_nodes":[],"categories_segments":[],"categories_sizes":[],"default_left":[0,0,0,0,0,0,0],"id":31,"left_children":[1,3,-1,5,-1,-1,-1],"loss_changes":[4.1448578E-4,9.0715715E-5,0E0,1.9219127E-5,0E0,0E0,0E0],"parents":[2147483647,0,0,1,1,3,3],"right_children":[2,4,-1,6,-1,-1,-1],"split_conditions":[7.916667E-1,3.13E2,-1.0642641E-3,5.0188684E-1,5.7828904E-4,1.0174115E-4,-2.1958351E-4],"split_indices":[18,4,0,1,0,0,0],"split_type":[0,0,0,0,0,0,0],"sum_hessian":[6E0,5E0,1E0,3E0,2E0,2E0,1E0],"tree_param":{"num_deleted":"0","num_feature":"45","num_nodes":"7","size_leaf_vector":"1"}},{"base_weights":[3.145178E-3,-4.145503E-4,5.474472E-4,9.631474E-5,-2.1080016E-4],"categories":[],"categories_nodes":[],"categories_segments":[],"categories_sizes":[],"default_left":[0,0,0,0,0],"id":32,"left_children":[1,3,-1,-1,-1],"loss_changes":[8.181819E-5,1.754744E-5,0E0,0E0,0E0],"parents":[2147483647,0,0,1,1],"right_children":[2,4,-1,-1,-1],"split_conditions":[3.13E2,5.0188684E-1,5.474472E-4,9.631474E-5,-2.1080016E-4],"split_indices":[4,1,0,0,0],"split_type":[0,0,0,0,0],"sum_hessian":[5E0,3E0,2E0,2E0,1E0],"tree_param":{"num_deleted":"0","num_feature":"45","num_nodes":"5","size_leaf_vector":"1"}},{"base_weights":[2.9657234E-3,-4.100129E-4,5.1825045E-4,-2.023685E-4,9.117762E-5],"categories":[],"categories_nodes":[],"categories_segments":[],"categories_sizes":[],"default_left":[0,0,0,0,0],"id":33,"left_children":[1,3,-1,-1,-1],"loss_changes":[7.3797884E-5,1.602226E-5,0E0,0E0,0E0],"parents":[2147483647,0,0,1,1],"right_children":[2,4,-1,-1,-1],"split_conditions":[3.13E2,4.450585E-1,5.1825045E-4,-2.023685E-4,9.117762E-5],"split_indices":[4,0,0,0,0],"split_type":[0,0,0,0,0],"sum_hessian":[5E0,3E0,2E0,1E0,2E0],"tree_param":{"num_deleted":"0","num_feature":"45","num_nodes":"5","size_leaf_vector":"1"}},{"base_weights":[-1.6135598E-3,3.1482696E-3,-1.0169082E-3,-1.9427418E-4,5.1495507E-3,4.906098E-4,8.801341E-5],"categories":[],"categories_nodes":[],"categories_segments":[],"categories_sizes":[],"default_left":[0,0,0,0,0,0,0],"id":34,"left_children":[1,3,-1,-1,5,-1,-1],"loss_changes":[3.5709358E-4,6.8308E-5,0E0,0E0,9.176423E-6,0E0,0E0],"parents":[2147483647,0,0,1,1,4,4],"right_children":[2,4,-1,-1,6,-1,-1],"split_conditions":[7.916667E-1,4.450585E-1,-1.0169082E-3,-1.9427418E-4,4.9852744E-1,4.906098E-4,8.801341E-5],"split_indices":[18,0,0,0,0,0,0],"split_type":[0,0,0,0,0,0,0],"sum_hessian":[5E0,4E0,1E0,1E0,3E0,2E0,1E0],"tree_param":{"num_deleted":"0","num_feature":"45","num_nodes":"7","size_leaf_vector":"1"}},{"base_weights":[-1.2272702E-3,2.6358168E-3,-9.7623165E-4,-4.004389E-4,4.6444414E-4,-1.8650293E-4,8.162181E-5],"categories":[],"categories_nodes":[],"categories_segments":[],"categories_sizes":[],"default_left":[0,0,0,0,0,0,0],"id":35,"left_children":[1,3,-1,5,-1,-1,-1],"loss_changes":[3.289632E-4,6.006953E-5,0E0,1.3351258E-5,0E0,0E0,0E0],"parents":[2147483647,0,0,1,1,3,3],"right_children":[2,4,-1,6,-1,-1,-1],"split_conditions":[7.916667E-1,3.13E2,-9.7623165E-4,4.450585E-1,4.6444414E-4,-1.8650293E-4,8.162181E-5],"split_indices":[18,4,0,0,0,0,0],"split_type":[0,0,0,0,0,0,0],"sum_hessian":[6E0,5E0,1E0,3E0,2E0,1E0,2E0],"tree_param":{"num_deleted":"0","num_feature":"45","num_nodes":"7","size_leaf_vector":"1"}},{"base_weights":[-1.2171844E-3,2.4848778E-3,-9.371823E-4,-3.9462745E-4,4.3967407E-4,-1.790428E-4,7.7268276E-5],"categories":[],"categories_nodes":[],"categories_segments":[],"categories_sizes":[],"default_left":[0,0,0,0,0,0,0],"id":36,"left_children":[1,3,-1,5,-1,-1,-1],"loss_changes":[3.0114903E-4,5.4190812E-5,0E0,1.2193299E-5,0E0,0E0,0E0],"parents":[2147483647,0,0,1,1,3,3],"right_children":[2,4,-1,6,-1,-1,-1],"split_conditions":[7.916667E-1,3.13E2,-9.371823E-4,4.450585E-1,4.3967407E-4,-1.790428E-4,7.7268276E-5],"split_indices":[18,4,0,0,0,0,0],"split_type":[0,0,0,0,0,0,0],"sum_hessian":[6E0,5E0,1E0,3E0,2E0,1E0,2E0],"tree_param":{"num_deleted":"0","num_feature":"45","num_nodes":"7","size_leaf_vector":"1"}},{"base_weights":[-1.5379215E-3,2.6529669E-3,-8.9969457E-4,-1.7188072E-4,4.3904632E-3,4.1622476E-4,7.8136916E-5],"categories":[],"categories_nodes":[],"categories_segments":[],"categories_sizes":[],"default_left":[0,0,0,0,0,0,0],"id":37,"left_children":[1,3,-1,-1,5,-1,-1],"loss_changes":[2.7395316E-4,5.114568E-5,0E0,0E0,6.0109596E-6,0E0,0E0],"parents":[2147483647,0,0,1,1,4,4],"right_children":[2,4,-1,-1,6,-1,-1],"split_conditions":[7.916667E-1,4.450585E-1,-8.9969457E-4,-1.7188072E-4,4.9852744E-1,4.1622476E-4,7.8136916E-5],"split_indices":[18,0,0,0,0,0,0],"split_type":[0,0,0,0,0,0,0],"sum_hessian":[5E0,4E0,1E0,1E0,3E0,2E0,1E0],"tree_param":{"num_deleted":"0","num_feature":"45","num_nodes":"7","size_leaf_vector":"1"}},{"base_weights":[-3.1885877E-3,-8.6370646E-4,4.922271E-4,-1.6500591E-4,1.3172567E-4],"categories":[],"categories_nodes":[],"categories_segments":[],"categories_sizes":[],"default_left":[0,0,0,0,0],"id":38,"left_children":[1,-1,3,-1,-1],"loss_changes":[1.7333041E-4,0E0,1.8141767E-5,0E0,0E0],"parents":[2147483647,0,0,2,2],"right_children":[2,-1,4,-1,-1],"split_conditions":[1.68E2,-8.6370646E-4,4.450585E-1,-1.6500591E-4,1.3172567E-4],"split_indices":[5,0,0,0,0],"split_type":[0,0,0,0,0],"sum_hessian":[5E0,1E0,4E0,1E0,3E0],"tree_param":{"num_deleted":"0","num_feature":"45","num_nodes":"5","size_leaf_vector":"1"}},{"base_weights":[2.3118507E-3,-4.092157E-4,4.1354576E-4,6.195386E-5,-1.584053E-4],"categories":[],"categories_nodes":[],"categories_segments":[],"categories_sizes":[],"default_left":[0,0,0,0,0],"id":39,"left_children":[1,3,-1,-1,-1],"loss_changes":[4.8767582E-5,8.970689E-6,0E0,0E0,0E0],"parents":[2147483647,0,0,1,1],"right_children":[2,4,-1,-1,-1],"split_conditions":[3.13E2,5.0188684E-1,4.1354576E-4,6.195386E-5,-1.584053E-4],"split_indices":[4,1,0,0,0],"split_type":[0,0,0,0,0],"sum_hessian":[5E0,3E0,2E0,2E0,1E0],"tree_param":{"num_deleted":"0","num_feature":"45","num_nodes":"5","size_leaf_vector":"1"}},{"base_weights":[-1.0702929E-3,2.1797519E-3,-8.2282245E-4,-4.0059537E-4,3.9149044E-4,-1.5206933E-4,5.864938E-5],"categories":[],"categories_nodes":[],"categories_segments":[],"categories_sizes":[],"default_left":[0,0,0,0,0,0,0],"id":40,"left_children":[1,3,-1,5,-1,-1,-1],"loss_changes":[2.320632E-4,4.3976863E-5,0E0,8.197064E-6,0E0,0E0,0E0],"parents":[2147483647,0,0,1,1,3,3],"right_children":[2,4,-1,6,-1,-1,-1],"split_conditions":[7.916667E-1,3.13E2,-8.2282245E-4,9E0,3.9149044E-4,-1.5206933E-4,5.864938E-5],"split_indices":[18,4,0,2,0,0,0],"split_type":[0,0,0,0,0,0,0],"sum_hessian":[6E0,5E0,1E0,3E0,2E0,1E0,2E0],"tree_param":{"num_deleted":"0","num_feature":"45","num_nodes":"7","size_leaf_vector":"1"}},{"base_weights":[-1.312755E-3,2.3742437E-3,-7.899099E-4,-1.4598608E-4,3.8802177E-3,4.3340444E-4,1.2495359E-4],"categories":[],"categories_nodes":[],"categories_segments":[],"categories_sizes":[],"default_left":[0,0,0,0,0,0,0],"id":41,"left_children":[1,3,-1,-1,5,-1,-1],"loss_changes":[2.1283202E-4,3.8699167E-5,0E0,0E0,5.7942416E-6,0E0,0E0],"parents":[2147483647,0,0,1,1,4,4],"right_children":[2,4,-1,-1,6,-1,-1],"split_conditions":[7.916667E-1,4.450585E-1,-7.899099E-4,-1.4598608E-4,4.9802253E-1,4.3340444E-4,1.2495359E-4],"split_indices":[18,0,0,0,1,0,0],"split_type":[0,0,0,0,0,0,0],"sum_hessian":[5E0,4E0,1E0,1E0,3E0,1E0,2E0],"tree_param":{"num_deleted":"0","num_feature":"45","num_nodes":"7","size_leaf_vector":"1"}},{"base_weights":[-1.041406E-3,-7.583135E-4,1.9446661E-3,-4.1788816E-4,3.557213E-4,-1.4014721E-4,4.8856735E-5],"categories":[],"categories_nodes":[],"categories_segments":[],"categories_sizes":[],"default_left":[0,0,0,0,0,0,0],"id":42,"left_children":[1,-1,3,5,-1,-1,-1],"loss_changes":[1.947985E-4,0E0,3.7322687E-5,6.558263E-6,0E0,0E0,0E0],"parents":[2147483647,0,0,2,2,3,3],"right_children":[2,-1,4,6,-1,-1,-1],"split_conditions":[1.875E-1,-7.583135E-4,3.13E2,4.450585E-1,3.557213E-4,-1.4014721E-4,4.8856735E-5],"split_indices":[20,0,4,0,0,0,0],"split_type":[0,0,0,0,0,0,0],"sum_hessian":[6E0,1E0,5E0,3E0,2E0,1E0,2E0],"tree_param":{"num_deleted":"0","num_feature":"45","num_nodes":"7","size_leaf_vector":"1"}},{"base_weights":[-1.0286421E-3,1.8331707E-3,-7.279807E-4,-4.072711E-4,3.3674954E-4,4.6251615E-5,-1.345408E-4],"categories":[],"categories_nodes":[],"categories_segments":[],"categories_sizes":[],"default_left":[0,0,0,0,0,0,0],"id":43,"left_children":[1,3,-1,5,-1,-1,-1],"loss_changes":[1.7836758E-4,3.365676E-5,0E0,5.9959098E-6,0E0,0E0,0E0],"parents":[2147483647,0,0,1,1,3,3],"right_children":[2,4,-1,6,-1,-1,-1],"split_conditions":[7.916667E-1,3.13E2,-7.279807E-4,5.0188684E-1,3.3674954E-4,4.6251615E-5,-1.345408E-4],"split_indices":[18,4,0,1,0,0,0],"split_type":[0,0,0,0,0,0,0],"sum_hessian":[6E0,5E0,1E0,3E0,2E0,2E0,1E0],"tree_param":{"num_deleted":"0","num_feature":"45","num_nodes":"7","size_leaf_vector":"1"}},{"base_weights":[-1.0148521E-3,1.7279288E-3,-6.988615E-4,-3.9676577E-4,3.9848783E-3,-1.2915969E-4,4.3784774E-5,8.9815854E-5,3.8836955E-4],"categories":[],"categories_nodes":[],"categories_segments":[],"categories_sizes":[],"default_left":[0,0,0,0,0,0,0,0,0],"id":44,"left_children":[1,3,-1,5,7,-1,-1,-1,-1],"loss_changes":[1.6333225E-4,3.035304E-5,0E0,5.4821467E-6,2.0177904E-6,0E0,0E0,0E0,0E0],"parents":[2147483647,0,0,1,1,3,3,4,4],"right_children":[2,4,-1,6,8,-1,-1,-1,-1],"split_conditions":[7.916667E-1,3.13E2,-6.988615E-4,4.450585E-1,4.8749077E-1,-1.2915969E-4,4.3784774E-5,8.9815854E-5,3.8836955E-4],"split_indices":[18,4,0,0,0,0,0,0,0],"split_type":[0,0,0,0,0,0,0,0,0],"sum_hessian":[6E0,5E0,1E0,3E0,2E0,1E0,2E0,1E0,1E0],"tree_param":{"num_deleted":"0","num_feature":"45","num_nodes":"9","size_leaf_vector":"1"}},{"base_weights":[-9.773864E-4,1.6551614E-3,-6.709069E-4,-3.8636476E-4,3.8254757E-3,4.1449865E-5,-1.2399316E-4,3.7283418E-4,8.6222884E-5],"categories":[],"categories_nodes":[],"categories_segments":[],"categories_sizes":[],"default_left":[0,0,0,0,0,0,0,0,0],"id":45,"left_children":[1,3,-1,5,7,-1,-1,-1,-1],"loss_changes":[1.5041164E-4,2.8062552E-5,0E0,5.012714E-6,1.859622E-6,0E0,0E0,0E0,0E0],"parents":[2147483647,0,0,1,1,3,3,4,4],"right_children":[2,4,-1,6,8,-1,-1,-1,-1],"split_conditions":[7.916667E-1,3.125E-1,-6.709069E-4,5.0188684E-1,4.9802253E-1,4.1449865E-5,-1.2399316E-4,3.7283418E-4,8.6222884E-5],"split_indices":[18,13,0,1,1,0,0,0,0],"split_type":[0,0,0,0,0,0,0,0,0],"sum_hessian":[6E0,5E0,1E0,3E0,2E0,2E0,1E0,1E0,1E0],"tree_param":{"num_deleted":"0","num_feature":"45","num_nodes":"9","size_leaf_vector":"1"}},{"base_weights":[1.5855035E-3,-3.760904E-4,3.6724608E-3,-1.19032855E-4,3.923893E-5,8.277416E-5,3.5792112E-4],"categories":[],"categories_nodes":[],"categories_segments":[],"categories_sizes":[],"default_left":[0,0,0,0,0,0,0],"id":46,"left_children":[1,3,5,-1,-1,-1,-1],"loss_changes":[2.5943755E-5,4.5837123E-6,1.7138118E-6,0E0,0E0,0E0,0E0],"parents":[2147483647,0,0,1,1,2,2],"right_children":[2,4,6,-1,-1,-1,-1],"split_conditions":[3.13E2,4.450585E-1,4.8749077E-1,-1.19032855E-4,3.923893E-5,8.277416E-5,3.5792112E-4],"split_indices":[4,0,0,0,0,0,0],"split_type":[0,0,0,0,0,0,0],"sum_hessian":[5E0,3E0,2E0,1E0,2E0,1E0,1E0],"tree_param":{"num_deleted":"0","num_feature":"45","num_nodes":"7","size_leaf_vector":"1"}},{"base_weights":[-1.004021E-3,1.5188107E-3,-6.456405E-4,-3.6595762E-4,3.5255651E-3,-1.14271636E-4,3.7145615E-5,7.9463716E-5,3.4360407E-4],"categories":[],"categories_nodes":[],"categories_segments":[],"categories_sizes":[],"default_left":[0,0,0,0,0,0,0,0,0],"id":47,"left_children":[1,3,-1,5,7,-1,-1,-1,-1],"loss_changes":[1.3705045E-4,2.3983812E-5,0E0,4.1917074E-6,1.5793776E-6,0E0,0E0,0E0,0E0],"parents":[2147483647,0,0,1,1,3,3,4,4],"right_children":[2,4,-1,6,8,-1,-1,-1,-1],"split_conditions":[7.916667E-1,3.13E2,-6.456405E-4,4.450585E-1,4.8749077E-1,-1.14271636E-4,3.7145615E-5,7.9463716E-5,3.4360407E-4],"split_indices":[18,4,0,0,0,0,0,0,0],"split_type":[0,0,0,0,0,0,0,0,0],"sum_hessian":[6E0,5E0,1E0,3E0,2E0,1E0,2E0,1E0,1E0],"tree_param":{"num_deleted":"0","num_feature":"45","num_nodes":"9","size_leaf_vector":"1"}},{"base_weights":[1.4549693E-3,-3.5595894E-4,3.3845503E-3,-1.09701155E-4,3.516515E-5,7.62856E-5,3.2986043E-4],"categories":[],"categories_nodes":[],"categories_segments":[],"categories_sizes":[],"default_left":[0,0,0,0,0,0,0],"id":48,"left_children":[1,3,5,-1,-1,-1,-1],"loss_changes":[2.217076E-5,3.8335556E-6,1.4555226E-6,0E0,0E0,0E0,0E0],"parents":[2147483647,0,0,1,1,2,2],"right_children":[2,4,6,-1,-1,-1,-1],"split_conditions":[3.13E2,4.450585E-1,4.8749077E-1,-1.09701155E-4,3.516515E-5,7.62856E-5,3.2986043E-4],"split_indices":[4,0,0,0,0,0,0],"split_type":[0,0,0,0,0,0,0],"sum_hessian":[5E0,3E0,2E0,1E0,2E0,1E0,1E0],"tree_param":{"num_deleted":"0","num_feature":"45","num_nodes":"7","size_leaf_vector":"1"}},{"base_weights":[-1.023929E-3,1.3938397E-3,-6.2122167E-4,-3.4611672E-4,3.2491684E-3,-1.0531306E-4,3.328959E-5,7.323384E-5,3.1666635E-4],"categories":[],"categories_nodes":[],"categories_segments":[],"categories_sizes":[],"default_left":[0,0,0,0,0,0,0,0,0],"id":49,"left_children":[1,3,-1,5,7,-1,-1,-1,-1],"loss_changes":[1.2491658E-4,2.0493739E-5,0E0,3.5061682E-6,1.3414574E-6,0E0,0E0,0E0,0E0],"parents":[2147483647,0,0,1,1,3,3,4,4],"right_children":[2,4,-1,6,8,-1,-1,-1,-1],"split_conditions":[7.916667E-1,3.13E2,-6.2122167E-4,4.450585E-1,4.8749077E-1,-1.0531306E-4,3.328959E-5,7.323384E-5,3.1666635E-4],"split_indices":[18,4,0,0,0,0,0,0,0],"split_type":[0,0,0,0,0,0,0,0,0],"sum_hessian":[6E0,5E0,1E0,3E0,2E0,1E0,2E0,1E0,1E0],"tree_param":{"num_deleted":"0","num_feature":"45","num_nodes":"9","size_leaf_vector":"1"}},{"base_weights":[1.335313E-3,-3.3643097E-4,3.1192005E-3,3.1514166E-5,-1.011002E-4,3.0399917E-4,7.030487E-5],"categories":[],"categories_nodes":[],"categories_segments":[],"categories_sizes":[],"default_left":[0,0,0,0,0,0,0],"id":50,"left_children":[1,3,5,-1,-1,-1,-1],"loss_changes":[1.8942614E-5,3.2069333E-6,1.2362289E-6,0E0,0E0,0E0,0E0],"parents":[2147483647,0,0,1,1,2,2],"right_children":[2,4,6,-1,-1,-1,-1],"split_conditions":[3.13E2,5.0188684E-1,4.9802253E-1,3.1514166E-5,-1.011002E-4,3.0399917E-4,7.030487E-5],"split_indices":[4,1,1,0,0,0,0],"split_type":[0,0,0,0,0,0,0],"sum_hessian":[5E0,3E0,2E0,2E0,1E0,1E0,1E0],"tree_param":{"num_deleted":"0","num_feature":"45","num_nodes":"7","size_leaf_vector":"1"}},{"base_weights":[1.3068676E-3,-6.5305234E-5,2.9944282E-3,6.749272E-5,2.9183863E-4],"categories":[],"categories_nodes":[],"categories_segments":[],"categories_sizes":[],"default_left":[0,0,0,0,0],"id":51,"left_children":[1,-1,3,-1,-1],"loss_changes":[2.0359395E-5,0E0,1.139284E-6,0E0,0E0],"parents":[2147483647,0,0,2,2],"right_children":[2,-1,4,-1,-1],"split_conditions":[3.13E2,-6.5305234E-5,4.8749077E-1,6.749272E-5,2.9183863E-4],"split_indices":[4,0,0,0,0],"split_type":[0,0,0,0,0],"sum_hessian":[4E0,2E0,2E0,1E0,1E0],"tree_param":{"num_deleted":"0","num_feature":"45","num_nodes":"5","size_leaf_vector":"1"}},{"base_weights":[-2.372476E-3,-5.89717E-4,1.01614E-4,-9.444475E-5,5.7383775E-5],"categories":[],"categories_nodes":[],"categories_segments":[],"categories_sizes":[],"default_left":[0,0,0,0,0],"id":52,"left_children":[1,-1,3,-1,-1],"loss_changes":[7.495671E-5,0E0,4.793875E-6,0E0,0E0],"parents":[2147483647,0,0,2,2],"right_children":[2,-1,4,-1,-1],"split_conditions":[1.68E2,-5.89717E-4,4.450585E-1,-9.444475E-5,5.7383775E-5],"split_indices":[5,0,0,0,0],"split_type":[0,0,0,0,0],"sum_hessian":[5E0,1E0,4E0,1E0,3E0],"tree_param":{"num_deleted":"0","num_feature":"45","num_nodes":"5","size_leaf_vector":"1"}},{"base_weights":[-8.755603E-4,1.3373792E-3,-5.661279E-4,3.037548E-4,8.6081025E-5,-9.066701E-5,5.3941607E-5],"categories":[],"categories_nodes":[],"categories_segments":[],"categories_sizes":[],"default_left":[0,0,0,0,0,0,0],"id":53,"left_children":[1,3,-1,-1,5,-1,-1],"loss_changes":[1.0552176E-4,1.8138982E-5,0E0,0E0,4.350419E-6,0E0,0E0],"parents":[2147483647,0,0,1,1,4,4],"right_children":[2,4,-1,-1,6,-1,-1],"split_conditions":[7.916667E-1,4.9802253E-1,-5.661279E-4,3.037548E-4,4.450585E-1,-9.066701E-5,5.3941607E-5],"split_indices":[18,1,0,0,0,0,0],"split_type":[0,0,0,0,0,0,0],"sum_hessian":[6E0,5E0,1E0,1E0,4E0,1E0,3E0],"tree_param":{"num_deleted":"0","num_feature":"45","num_nodes":"7","size_leaf_vector":"1"}},{"base_weights":[-8.4824435E-4,1.2748936E-3,-5.434829E-4,2.9160499E-4,7.184744E-5,5.0705075E-5,-8.704066E-5],"categories":[],"categories_nodes":[],"categories_segments":[],"categories_sizes":[],"default_left":[0,0,0,0,0,0,0],"id":54,"left_children":[1,3,-1,-1,5,-1,-1],"loss_changes":[9.7019765E-5,1.6846647E-5,0E0,0E0,3.9485917E-6,0E0,0E0],"parents":[2147483647,0,0,1,1,4,4],"right_children":[2,4,-1,-1,6,-1,-1],"split_conditions":[7.916667E-1,4.9802253E-1,-5.434829E-4,2.9160499E-4,5.670515E-1,5.0705075E-5,-8.704066E-5],"split_indices":[18,1,0,0,1,0,0],"split_type":[0,0,0,0,0,0,0],"sum_hessian":[6E0,5E0,1E0,1E0,4E0,3E0,1E0],"tree_param":{"num_deleted":"0","num_feature":"45","num_nodes":"7","size_leaf_vector":"1"}},{"base_weights":[1.2154529E-3,2.7994037E-4,5.8841706E-5,-8.355856E-5,4.766345E-5],"categories":[],"categories_nodes":[],"categories_segments":[],"categories_sizes":[],"default_left":[0,0,0,0,0],"id":55,"left_children":[1,-1,3,-1,-1],"loss_changes":[1.5642921E-5,0E0,3.5844514E-6,0E0,0E0],"parents":[2147483647,0,0,2,2],"right_children":[2,-1,4,-1,-1],"split_conditions":[4.9802253E-1,2.7994037E-4,4.450585E-1,-8.355856E-5,4.766345E-5],"split_indices":[1,0,0,0,0],"split_type":[0,0,0,0,0],"sum_hessian":[5E0,1E0,4E0,1E0,3E0],"tree_param":{"num_deleted":"0","num_feature":"45","num_nodes":"5","size_leaf_vector":"1"}},{"base_weights":[1.1588981E-3,2.6874302E-4,4.69625E-5,-8.021593E-5,4.4804216E-5],"categories":[],"categories_nodes":[],"categories_segments":[],"categories_sizes":[],"default_left":[0,0,0,0,0],"id":56,"left_children":[1,-1,3,-1,-1],"loss_changes":[1.4522389E-5,0E0,3.2544199E-6,0E0,0E0],"parents":[2147483647,0,0,2,2],"right_children":[2,-1,4,-1,-1],"split_conditions":[4.9802253E-1,2.6874302E-4,4.450585E-1,-8.021593E-5,4.4804216E-5],"split_indices":[1,0,0,0,0],"split_type":[0,0,0,0,0],"sum_hessian":[5E0,1E0,4E0,1E0,3E0],"tree_param":{"num_deleted":"0","num_feature":"45","num_nodes":"5","size_leaf_vector":"1"}},{"base_weights":[-9.293663E-4,1.10508E-3,-5.254418E-4,2.5799274E-4,3.6132336E-5,-7.7006815E-5,4.211664E-5],"categories":[],"categories_nodes":[],"categories_segments":[],"categories_sizes":[],"default_left":[0,0,0,0,0,0,0],"id":57,"left_children":[1,3,-1,-1,5,-1,-1],"loss_changes":[8.755898E-5,1.3479397E-5,0E0,0E0,2.955245E-6,0E0,0E0],"parents":[2147483647,0,0,1,1,4,4],"right_children":[2,4,-1,-1,6,-1,-1],"split_conditions":[7.916667E-1,4.9802253E-1,-5.254418E-4,2.5799274E-4,4.450585E-1,-7.7006815E-5,4.211664E-5],"split_indices":[18,1,0,0,0,0,0],"split_type":[0,0,0,0,0,0,0],"sum_hessian":[6E0,5E0,1E0,1E0,4E0,1E0,3E0],"tree_param":{"num_deleted":"0","num_feature":"45","num_nodes":"7","size_leaf_vector":"1"}},{"base_weights":[-8.982058E-4,1.0538598E-3,-5.04424E-4,-2.9797852E-4,2.5050242E-3,-5.6052206E-5,3.6401747E-5,5.2930114E-5,2.4767278E-4],"categories":[],"categories_nodes":[],"categories_segments":[],"categories_sizes":[],"default_left":[0,0,0,0,0,0,0,0,0],"id":58,"left_children":[1,3,-1,5,7,-1,-1,-1,-1],"loss_changes":[8.052991E-5,1.2516883E-5,0E0,1.5316671E-6,1.2193759E-6,0E0,0E0,0E0,0E0],"parents":[2147483647,0,0,1,1,3,3,4,4],"right_children":[2,4,-1,6,8,-1,-1,-1,-1],"split_conditions":[7.916667E-1,3.13E2,-5.04424E-4,1E1,4.8749077E-1,-5.6052206E-5,3.6401747E-5,5.2930114E-5,2.4767278E-4],"split_indices":[18,4,0,2,0,0,0,0,0],"split_type":[0,0,0,0,0,0,0,0,0],"sum_hessian":[6E0,5E0,1E0,3E0,2E0,2E0,1E0,1E0,1E0],"tree_param":{"num_deleted":"0","num_feature":"45","num_nodes":"9","size_leaf_vector":"1"}},{"base_weights":[-1.9920047E-3,-4.8424662E-4,3.0827523E-5,-7.168412E-5,3.8924813E-5],"categories":[],"categories_nodes":[],"categories_segments":[],"categories_sizes":[],"default_left":[0,0,0,0,0],"id":59,"left_children":[1,-1,3,-1,-1],"loss_changes":[4.947587E-5,0E0,2.548028E-6,0E0,0E0],"parents":[2147483647,0,0,2,2],"right_children":[2,-1,4,-1,-1],"split_conditions":[1.68E2,-4.8424662E-4,4.450585E-1,-7.168412E-5,3.8924813E-5],"split_indices":[5,0,0,0,0],"split_type":[0,0,0,0,0],"sum_hessian":[5E0,1E0,4E0,1E0,3E0],"tree_param":{"num_deleted":"0","num_feature":"45","num_nodes":"5","size_leaf_vector":"1"}},{"base_weights":[-9.865338E-4,-4.6487627E-4,1.1405408E-3,-5.218903E-5,2.5532644E-3,4.9256087E-5,2.5713563E-4],"categories":[],"categories_nodes":[],"categories_segments":[],"categories_sizes":[],"default_left":[0,0,0,0,0,0,0],"id":60,"left_children":[1,-1,3,-1,5,-1,-1],"loss_changes":[6.8199035E-5,0E0,1.4330041E-5,0E0,1.8628034E-6,0E0,0E0],"parents":[2147483647,0,0,2,2,4,4],"right_children":[2,-1,4,-1,6,-1,-1],"split_conditions":[2.2916667E-1,-4.6487627E-4,3.13E2,-5.218903E-5,4.8749077E-1,4.9256087E-5,2.5713563E-4],"split_indices":[17,0,4,0,0,0,0],"split_type":[0,0,0,0,0,0,0],"sum_hessian":[5E0,1E0,4E0,2E0,2E0,1E0,1E0],"tree_param":{"num_deleted":"0","num_feature":"45","num_nodes":"7","size_leaf_vector":"1"}},{"base_weights":[-6.2238955E-4,1.1333823E-3,-4.462808E-4,2.4685025E-4,1.2580752E-4,4.5945642E-5,-6.672978E-5],"categories":[],"categories_nodes":[],"categories_segments":[],"categories_sizes":[],"default_left":[0,0,0,0,0,0,0],"id":61,"left_children":[1,3,-1,-1,5,-1,-1],"loss_changes":[6.723531E-5,1.1414006E-5,0E0,0E0,2.631759E-6,0E0,0E0],"parents":[2147483647,0,0,1,1,4,4],"right_children":[2,4,-1,-1,6,-1,-1],"split_conditions":[7.916667E-1,4.9802253E-1,-4.462808E-4,2.4685025E-4,5.670515E-1,4.5945642E-5,-6.672978E-5],"split_indices":[18,1,0,0,1,0,0],"split_type":[0,0,0,0,0,0,0],"sum_hessian":[6E0,5E0,1E0,1E0,4E0,3E0,1E0],"tree_param":{"num_deleted":"0","num_feature":"45","num_nodes":"7","size_leaf_vector":"1"}},{"base_weights":[-6.040611E-4,1.0803839E-3,-4.2842922E-4,2.3697614E-4,1.11579895E-4,-6.406069E-5,4.318833E-5],"categories":[],"categories_nodes":[],"categories_segments":[],"categories_sizes":[],"default_left":[0,0,0,0,0,0,0],"id":62,"left_children":[1,3,-1,-1,5,-1,-1],"loss_changes":[6.180903E-5,1.0608153E-5,0E0,0E0,2.3859484E-6,0E0,0E0],"parents":[2147483647,0,0,1,1,4,4],"right_children":[2,4,-1,-1,6,-1,-1],"split_conditions":[7.916667E-1,4.9802253E-1,-4.2842922E-4,2.3697614E-4,4.450585E-1,-6.406069E-5,4.318833E-5],"split_indices":[18,1,0,0,0,0,0],"split_type":[0,0,0,0,0,0,0],"sum_hessian":[6E0,5E0,1E0,1E0,4E0,1E0,3E0],"tree_param":{"num_deleted":"0","num_feature":"45","num_nodes":"7","size_leaf_vector":"1"}},{"base_weights":[-5.860648E-4,1.0299733E-3,-4.1129172E-4,2.2749662E-4,9.848476E-5,-6.149769E-5,4.059732E-5],"categories":[],"categories_nodes":[],"categories_segments":[],"categories_sizes":[],"default_left":[0,0,0,0,0,0,0],"id":63,"left_children":[1,3,-1,-1,5,-1,-1],"loss_changes":[5.682354E-5,9.856774E-6,0E0,0E0,2.1634569E-6,0E0,0E0],"parents":[2147483647,0,0,1,1,4,4],"right_children":[2,4,-1,-1,6,-1,-1],"split_conditions":[7.916667E-1,4.9802253E-1,-4.1129172E-4,2.2749662E-4,4.450585E-1,-6.149769E-5,4.059732E-5],"split_indices":[18,1,0,0,0,0,0],"split_type":[0,0,0,0,0,0,0],"sum_hessian":[6E0,5E0,1E0,1E0,4E0,1E0,3E0],"tree_param":{"num_deleted":"0","num_feature":"45","num_nodes":"7","size_leaf_vector":"1"}}]},"name":"gbtree"},"learner_model_param":{"base_score":"[3.1333333E-1]","boost_from_average":"1","num_class":"0","num_feature":"45","num_target":"1"},"objective":{"name":"reg:squarederror","reg_loss_param":{"scale_pos_weight":"1"}}},"version":[3,2,0]}